tree
version=v4
num_class=1
num_tree_per_iteration=1
label_index=0
max_feature_idx=29
objective=regression
feature_names=OverallQual YearBuilt YearRemodAdd MasVnrArea ExterQual BsmtQual Heating HeatingQC 1stFlrSF GrLivArea FullBath KitchenQual TotRmsAbvGrd Fireplaces GarageYrBlt GarageFinish GarageCars GarageArea OpenPorchSF TotalSF Total_sqr_footage Total_Bathrooms House_age Remod_age OverallQual_bin_Medium OverallQual_bin_High OverallQual_bin_VeryHigh GrLivArea_bin_Large GrLivArea_bin_VeryLarge TotalSF_bin_Large
feature_infos=[-3.6884129023269017:2.8214253161520091] [-3.2878236270816039:1.2828389943341165] [-1.6893684979547681:1.2178427314346332] [-0.80205692003676254:2.1070853165433743] [-3.6608302442731406:0.66345143585532629] [-2.6383941289267741:0.83296852793692944] [-3.5126160817653682:13.43523414750574] [-0.88465766903616372:1.4156098230258114] [-11.830783832707761:3.5329467772292142] [-13.226964638727432:3.3672295208881904] [-2.841822193737443:2.6055218800349866] [-2.8193648709329087:0.79562872821408792] [-2.7804693394516362:4.6048888817722364] [-0.95122648823328926:3.7039377782044842] [-3.2760719445902509:1.3094009009840375] [-1.5140863338893122:0.95031282717913379] [-2.3654399470362519:2.9888892354023961] [-2.2129629830885067:4.4215260041528026] [-1.061053701838806:2.0142055426206378] [-18.52948263686665:6.6226845378063519] [-14.458666740468837:5.9609423187851691] [-2.348044265035917:7.0668419946269267] [-2.518010752907383:4.8336711071879046] [-2.3916833825823951:3.3345782089614104] [0:1] [0:1] [0:1] [0:1] [0:1] [0:1]
tree_sizes=2692 2894 2891 2935 2884 2938 2940 2900 2926 2908 2969 2978 2923 2992 3023 2940 2953 3009 3027 3038 2969 2963 2938 3014 2962 2993 3007 3042 2965 3052 3002 3061 2982 3031 3062 3035 3095 3053 3109 3077 3110 3091 3074 3101 3132 3107 3116 3066 3128 3128 3183 3151 2945 3145 3105 3189 3058 3150 3115 3091 2560 3059 2596 3081 3219 2281 3162 3057 2876 2764 3132 3132 3179 1990 2482 1842 1647 3160 1383 1137 2502 2338 1371 1827 1914 1192 1502 1570 1899 2456 1324 1323 2078 1423 1593 1258 1232 1978 1292 1309 1565 1507 1155 1003 1981 1229 2018 1526 1080 1186 2496 1001 1113 2046 980 908 2207 1718 1388 1592 1194 1482 1550 802 810 829 936 945 817 1103 742 907 432 734 553 433 505 343 616

Tree=0
num_leaves=31
num_cat=0
split_feature=0 19 19 20 16 16 8 0 0 0 17 8 17 20 15 19 0 8 19 0 2 19 2 19 16 4 20 1 1 11
split_gain=107.439 21.0215 18.0067 9.18595 6.19882 6.19526 3.70432 2.52249 2.20792 1.91343 1.83808 1.79753 1.18714 1.13139 1.07603 1.07406 0.990744 0.950573 0.865469 0.802177 0.665166 0.639322 0.632107 0.609862 0.6015 0.557888 0.52438 0.455117 0.436342 0.419578
threshold=1.0000000180025095e-35 -0.6573595939755269 0.9646647657095001 -1.8326771814566902 0.98101579198790323 1.0000000180025095e-35 0.81917886089530556 1.7364522797388575 -0.43349379308744634 -1.1568091506962139 -1.2655130395649767 -0.76166302620913828 -0.37654766045647986 -0.91165477850582632 1.0000000180025095e-35 0.34796451187576405 -1.1568091506962139 0.39049403179559578 -0.018188164539698012 1.0131369221300894 0.12763852041360768 1.473096786570133 -1.3744206147709159 1.8984021014160044 1.0000000180025095e-35 1.0000000180025095e-35 -2.7224062821836461 -1.4496223554252812 0.43826003168121169 1.0000000180025095e-35
decision_type=2 2 2 2 2 2 2 2 2 2 2 2 2 2 2 2 2 2 2 2 2 2 2 2 2 2 2 2 2 2
left_child=1 3 6 9 17 13 12 21 14 11 -5 26 -2 -3 -7 28 -12 25 -14 -8 -20 -6 -15 -9 -18 -4 -1 -16 -10 -17
right_child=2 5 4 10 7 8 19 23 15 -11 16 -13 18 22 27 29 24 -19 20 -21 -22 -23 -24 -25 -26 -27 -28 -29 -30 -31
leaf_value=11.970376164652572 12.019245513116031 12.00749167614801 12.042241963837753 11.996996416912042 12.047893910160768 12.025130948912643 12.03673463644501 12.062304711625625 12.020497781645073 11.998943582968026 12.003674500583481 11.995439909616067 12.026234490074298 12.010657401014726 12.007658954887486 12.034293144351221 12.010042456580974 12.047925027193353 12.021905460826241 12.046120599341805 12.034854283642023 12.057124388354218 12.017951516122734 12.073689319565991 12.015637945607667 12.032211169354989 11.984984334754971 12.01705833941271 12.026856378472644 12.028011887798213
leaf_weight=14.000000000000002 26 63 47 24 32 39 47 25 56 76 34 28 67 44 17 45 93 61 10.999999999999998 45 95 48 93 24 101 20 11.999999999999998 55 52 66
leaf_count=14 26 63 47 24 32 39 47 25 56 76 34 28 67 44 17 45 93 61 11 45 95 48 93 24 101 20 12 55 52 66
internal_value=12.0241 12.0135 12.0416 12.0046 12.0512 12.02 12.033 12.0589 12.0242 11.9938 12.0102 11.9866 12.0292 12.013 12.0185 12.0271 12.0116 12.0434 12.0307 12.0413 12.0335 12.0534 12.0156 12.0679 12.013 12.0393 11.9771 12.0148 12.0236 12.0306
internal_weight=1460 912 548 382 257 530 291 129 330 130 252 54 199 200 111 219 228 128 173 92 106 80 137 49 194 67 26 72 108 111
internal_count=1460 912 548 382 257 530 291 129 330 130 252 54 199 200 111 219 228 128 173 92 106 80 137 49 194 67 26 72 108 111
is_linear=0
shrinkage=1


Tree=1
num_leaves=31
num_cat=0
split_feature=0 19 19 0 16 16 8 21 8 0 0 9 22 13 21 8 17 19 0 22 17 8 19 17 19 21 17 23 9 9
split_gain=96.9708 18.9734 16.2522 6.45435 5.59434 5.59164 3.34331 2.97865 2.84067 2.27613 1.99277 1.13163 1.0966 1.02579 0.869243 0.857445 0.78428 0.775504 0.723655 0.694764 0.608435 0.599111 0.576426 0.56261 0.549595 0.505657 0.457838 0.413246 0.396158 0.37289
threshold=1.0000000180025095e-35 -0.6573595939755269 0.9646647657095001 -1.1568091506962139 0.98101579198790323 1.0000000180025095e-35 0.81917886089530556 -1.297444662439716 -0.86242252916324813 1.7364522797388575 -0.43349379308744634 0.29400978317662924 0.69785864927742947 1.0000000180025095e-35 -2.2920476866955615 0.39049403179559578 -0.88653306215556493 -0.018188164539698012 1.0131369221300894 0.14336700004968841 -1.1040956417794865 -0.070730604532102184 1.473096786570133 -1.2234041531861533 1.8984021014160044 -2.2920476866955615 -0.34613568696066283 -0.24433528575346813 0.11970016583781731 -0.45694297585637728
decision_type=2 2 2 2 2 2 2 2 2 2 2 2 2 2 2 2 2 2 2 2 2 2 2 2 2 2 2 2 2 2
left_child=1 3 6 8 15 14 12 19 25 22 13 -12 17 -7 23 27 -9 -2 -8 -5 -10 28 -6 -3 -11 -1 -19 -4 -16 -21
right_child=2 5 4 7 9 10 18 16 20 24 11 -13 -14 -15 21 -17 -18 26 -20 29 -22 -23 -24 -25 -26 -27 -28 -29 -30 -31
leaf_value=-0.046650487933893814 0.002020044473322206 -0.025574192551153091 0.018447365499163933 -0.015608245827962677 0.022645060126708985 -0.0096748495101054797 0.012043512276900981 -0.016087613454889748 -0.033363273186449403 0.036335712125519663 -0.00070685136940303094 0.0064776940428129606 -0.0051293517208065853 -4.4223741277936123e-06 -0.0163140390325252 0.022674443559082116 -0.0082790023679842357 -0.00028843612942866347 0.020960286808554211 -0.025071183083571209 -0.020713598693079815 -0.0056327387668938939 0.031413986533414671 -0.013153228372655729 0.047151358737170024 -0.034316976401003202 0.010029856569823678 0.010531562345181296 -0.0084826867182249514 -0.014966208288796268
leaf_weight=19 67 11.999999999999998 33 43 32 61 47 44 11.999999999999998 25 109 110 24 50 30 61 122 11.999999999999998 45 65 50 82 48 40 24 15.999999999999998 96 34 36 10.999999999999998
leaf_count=19 67 12 33 43 32 61 47 44 12 25 109 110 24 50 30 61 122 12 45 65 50 82 48 40 24 16 96 34 36 11
internal_value=0 -0.00998864 0.0166232 -0.0184836 0.0257866 -0.00386468 0.00852822 -0.0146876 -0.0296291 0.0331402 0.000132037 0.00289967 0.00488021 -0.0053237 -0.0104614 0.0183696 -0.0103526 0.00625602 0.0164122 -0.0207291 -0.023175 -0.00849934 0.0279159 -0.0160336 0.0416519 -0.041038 0.00887883 0.01444 -0.0120519 -0.0236174
internal_weight=1460 912 548 382 257 530 291 285 97 129 330 219 199 111 200 128 166 175 92 119 62 148 80 52 49 35 108 67 66 76
internal_count=1460 912 548 382 257 530 291 285 97 129 330 219 199 111 200 128 166 175 92 119 62 148 80 52 49 35 108 67 66 76
is_linear=0
shrinkage=0.05


Tree=2
num_leaves=31
num_cat=0
split_feature=0 19 0 20 16 19 20 9 0 8 8 1 1 20 23 5 19 17 16 21 8 2 9 0 9 9 16 19 17 2
split_gain=87.524 17.1872 14.8648 6.05097 5.64299 4.37197 3.34118 2.21361 1.87354 1.64333 1.61181 1.28183 1.27267 1.26883 0.975892 0.937565 0.825161 0.75607 0.716978 0.699562 0.696391 0.652828 0.615556 0.58658 0.51045 0.504686 0.445137 0.430371 0.400398 0.386002
threshold=1.0000000180025095e-35 -0.86340487532190735 1.0131369221300894 -1.5630001416300974 1.0000000180025095e-35 1.2169278118552052 0.84772508825804715 0.025844514133911277 -1.8801245083049818 0.75396868892705704 0.83868662864147081 -0.65472450822254746 -2.1285975999109499 -0.91165477850582632 1.3678375422512399 1.0000000180025095e-35 0.079447946510177794 -1.0385929296346499 0.98101579198790323 0.51833669548442696 0.39049403179559578 -0.06617556154568574 1.2733005937496704 -1.1568091506962139 0.61406348030534008 0.11970016583781731 1.0000000180025095e-35 -1.7976456092386319 -0.30168741800523796 -1.5682346967302097
decision_type=2 2 2 2 2 2 2 2 2 2 2 2 2 2 2 2 2 2 2 2 2 2 2 2 2 2 2 2 2 2
left_child=1 3 6 8 13 9 15 11 -1 -4 -7 -6 -9 25 26 16 -2 23 -12 -11 -8 -14 -20 -10 29 -3 -5 -19 -18 -15
right_child=2 4 5 14 7 10 20 12 17 19 18 -13 21 24 -16 -17 28 27 22 -21 -22 -23 -24 -25 -26 -27 -28 -29 -30 -31
leaf_value=-0.043516027048779306 0.0018962623135667126 -0.019307836260054712 0.008768949638860303 -0.014017610754242335 -0.016199984088999871 0.02497438435029135 0.012935614654159936 -0.014830518756564208 -0.037488291910262588 0.016162830373411631 0.027195900755886133 -0.0033707032643433112 0.00052387966161329138 -0.014214088384005589 -0.019623035025964762 -0.002589861533823646 -0.00053412650230821683 -0.025672394157953367 0.034479664966238187 0.026241524781294503 0.021442519351597938 0.0061745575395235454 0.0450940361044877 -0.025023374150106876 -0.00087722692175855636 -0.010417877105412865 -0.0082647253777761616 -0.017818597014412237 0.0098527984568664087 -0.0078956245180475219
leaf_weight=15.999999999999998 61 46 33 67 23 50 62 9.9999999999999982 18 29 15.999999999999998 128 100 31 45 32 9.9999999999999982 39 31 44 40 105 26 21 21 25 69 33 114 115
leaf_count=16 61 46 33 67 23 50 62 10 18 29 16 128 100 31 45 32 10 39 31 44 40 105 26 21 21 25 69 33 114 115
internal_value=0 -0.00948978 0.0157927 -0.0191022 -0.00458702 0.025513 0.00881262 -0.000688275 -0.0274724 0.0180571 0.0319322 -0.00532909 0.00256886 -0.0105802 -0.0132252 0.0053005 0.00666808 -0.0251516 0.036687 0.0222473 0.0162783 0.00342073 0.0393371 -0.0307974 -0.00819283 -0.0161865 -0.0111034 -0.0220827 0.00901114 -0.00924152
internal_weight=1460 912 548 308 604 229 319 366 127 106 123 151 215 238 181 217 185 111 73 73 102 205 57 39 167 71 136 72 124 146
internal_count=1460 912 548 308 604 229 319 366 127 106 123 151 215 238 181 217 185 111 73 73 102 205 57 39 167 71 136 72 124 146
is_linear=0
shrinkage=0.05


Tree=3
num_leaves=31
num_cat=0
split_feature=0 20 0 16 0 0 20 0 8 9 20 9 14 13 0 8 5 16 8 9 8 17 23 9 8 0 8 9 9 1
split_gain=78.9975 15.5902 13.4167 6.634 3.69312 3.17374 3.01554 2.41911 1.70422 1.66743 1.42539 1.3003 1.27812 1.12642 0.988485 0.966685 0.846267 0.783048 0.78088 0.709298 0.628209 0.623918 0.575032 0.518291 0.501432 0.495788 0.480859 0.435914 0.413659 0.382746
threshold=1.0000000180025095e-35 -1.8326771814566902 1.0131369221300894 1.0000000180025095e-35 1.7364522797388575 -0.43349379308744634 0.84772508825804715 -1.1568091506962139 0.032273173978621061 0.82987350680162641 -3.4272433067087724 0.14916335234073955 0.62157997414789423 1.0000000180025095e-35 -1.1568091506962139 0.75396868892705704 1.0000000180025095e-35 0.98101579198790323 0.83868662864147081 0.16464853494526621 0.39049403179559578 0.31590958221750737 1.5506315158061585 1.6750922993105455 0.18481843850423166 -1.1568091506962139 0.15522662374486371 0.8377984886603429 -1.1734479583800306 -0.75408673912288926
decision_type=2 2 2 2 2 2 2 2 2 2 2 2 2 2 2 2 2 2 2 2 2 2 2 2 2 2 2 2 2 2
left_child=1 7 6 8 9 13 16 10 14 15 -1 26 24 25 28 -4 21 -6 -11 -16 -8 -2 -12 -19 -9 -5 -7 -13 -3 -24
right_child=2 3 4 5 17 11 20 12 -10 18 22 27 -14 -15 19 -17 -18 23 -20 -21 -22 -23 29 -25 -26 -27 -28 -29 -30 -31
leaf_value=-0.046244101073720081 0.0040614215789695441 -0.028703318532559398 0.0088755487208771085 -0.016305584752238454 0.021836600375997203 -0.0052275011871799823 0.012288938289506121 -0.022044567915949664 -0.0057503211478922749 0.021621405225358881 -0.022349480750416116 0.0034393149771340969 -0.0051507237636665114 -0.0013738531097703655 -0.013706003485314262 0.019615587356628439 -0.0024604088987467618 0.034601408971663986 0.032117280280424758 -0.0056625911576568787 0.020370661580813614 0.010061138804904599 -0.040528934315725268 0.047091569464575912 -0.011337457628681581 -0.008107157631439009 0.0013280483784596441 0.0098882779068324156 -0.017535696120374738 -0.026382925043572914
leaf_weight=11.999999999999998 115 11.999999999999998 32 23 9.9999999999999982 59 62 78 94 43 29 98 15.999999999999998 62 147 62 32 40 31 34 40 70 10.000000000000002 10.999999999999998 12.999999999999998 97 53 36 29 9.9999999999999982
leaf_count=12 115 12 32 23 10 59 62 78 94 43 29 98 16 62 147 62 32 40 31 34 40 70 10 11 13 97 53 36 29 10
internal_value=0 -0.0090158 0.0150036 -0.00590825 0.0242384 -0.00184989 0.00837213 -0.0227736 -0.0114032 0.0204027 -0.0307333 0.00185191 -0.0182288 -0.00685599 -0.0137942 0.0159661 0.00503538 0.0347888 0.0260288 -0.0121982 0.0154648 0.00633471 -0.0269159 0.0373139 -0.0205219 -0.00968392 -0.00212102 0.00517621 -0.0208227 -0.0334976
internal_weight=1460 912 548 744 229 428 319 168 316 168 61 246 107 182 222 94 217 61 74 181 102 185 49 51 91 120 112 134 41 20
internal_count=1460 912 548 744 229 428 319 168 316 168 61 246 107 182 222 94 217 61 74 181 102 185 49 51 91 120 112 134 41 20
is_linear=0
shrinkage=0.05


Tree=4
num_leaves=31
num_cat=0
split_feature=0 19 19 16 16 1 8 0 0 0 19 9 22 13 2 1 8 9 9 8 16 9 0 2 0 3 9 4 17 8
split_gain=71.3021 14.1914 12.2865 4.62074 4.27501 4.17605 2.53097 2.1749 1.85087 1.65431 1.38344 1.08169 0.919285 0.862221 0.847235 0.741699 0.711409 0.657767 0.617056 0.611508 0.506166 0.502679 0.494629 0.486418 0.484621 0.452611 0.424968 0.422684 0.418742 0.405908
threshold=1.0000000180025095e-35 -0.86340487532190735 0.9646647657095001 1.0000000180025095e-35 0.98101579198790323 -0.72096599548944196 0.81917886089530556 -1.1568091506962139 -0.43349379308744634 1.7364522797388575 -1.7976456092386319 0.59417406734852729 0.69785864927742947 1.0000000180025095e-35 -1.2775135737912693 -0.78720748275633645 -1.1944263922534579 0.55834776167374289 0.75099936091355302 0.39049403179559578 -1.6961487992314208 -0.44599553489410998 -0.43349379308744634 -0.40535020497444918 1.0131369221300894 1.5423309716393125 1.6750922993105455 1.0000000180025095e-35 0.049219968484958194 0.91826091439497726
decision_type=2 2 2 2 2 2 2 2 2 2 2 2 2 2 2 2 2 2 2 2 2 2 2 2 2 2 2 2 2 2
left_child=1 5 6 14 19 7 12 16 13 25 23 21 17 15 -3 -5 -1 28 20 27 -16 -10 -12 -7 -8 -6 -11 -4 -2 -13
right_child=2 3 4 8 9 10 24 -9 11 26 22 29 -14 -15 18 -17 -18 -19 -20 -21 -22 -23 -24 -25 -26 -27 -28 -29 -30 -31
leaf_value=-0.042564069658850727 0.00062231285245538804 -0.013265011993159437 0.015013108730642653 -0.017964474780639433 0.022057190152894784 -0.023358261390787401 0.010494227049427719 -0.019459836956308457 -0.0060259212490725803 0.03333027190329118 -0.01266449077584289 0.005499373613718125 -0.0051235637003427892 -0.00052586921063752759 -0.014879949198552496 -0.0061059587418603482 -0.029024581611777085 0.011330300269835164 0.0036915668512040828 0.019374781469219907 -0.0066971694170408049 0.0012822691035204441 -0.0062940611192764595 -0.012864918022100661 0.017800917269335512 0.031009386888245168 0.044739129389555862 0.0062791869920240471 0.0061622915202826966 0.015061236092005471
leaf_weight=17 61 93 47 17 61 38 47 56 28 38 115 44 24 55 23 60 24 36 11.999999999999998 61 110 147 42 15.999999999999998 45 19 10.999999999999998 20 78 14.999999999999998
leaf_count=17 61 93 47 17 61 38 47 56 28 38 115 44 24 55 23 60 24 36 12 61 110 147 42 16 45 19 11 20 78 15
internal_value=0 -0.00856548 0.014254 -0.00411035 0.0222214 -0.0173001 0.00721531 -0.0258926 -0.000582239 0.0286502 -0.0133466 0.00208674 0.00404088 -0.00531719 -0.00953358 -0.00873256 -0.0346597 0.00530079 -0.00713611 0.0157368 -0.00811701 0.000109824 -0.010964 -0.0202613 0.0140751 0.0241932 0.0359103 0.0124148 0.00373489 0.00794097
internal_weight=1460 912 548 604 257 308 291 97 366 129 211 234 199 132 238 77 41 175 145 128 133 175 157 54 92 80 49 67 139 59
internal_count=1460 912 548 604 257 308 291 97 366 129 211 234 199 132 238 77 41 175 145 128 133 175 157 54 92 80 49 67 139 59
is_linear=0
shrinkage=0.05


Tree=5
num_leaves=31
num_cat=0
split_feature=0 20 0 21 19 19 19 13 8 8 0 8 0 20 10 21 22 16 19 2 21 19 22 15 8 2 8 0 22 1
split_gain=64.3561 13.045 11.1081 5.89102 3.29901 2.60078 2.39173 2.15867 1.24045 1.20757 1.19072 1.05783 0.952365 0.926145 0.867719 0.867532 0.707742 0.622797 0.615356 0.603486 0.599931 0.575521 0.46627 0.459794 0.425641 0.395005 0.386808 0.385393 0.428025 0.375144
threshold=1.0000000180025095e-35 -1.8326771814566902 1.0131369221300894 -0.17030210569316415 1.2169278118552052 0.43363746242277568 -1.3995162847813862 1.0000000180025095e-35 0.87454105731805409 0.75396868892705704 -1.1568091506962139 0.18481843850423166 -1.8801245083049818 0.84772508825804715 1.0000000180025095e-35 -2.2920476866955615 0.72726050990544655 0.98101579198790323 1.6635713349474301 -1.6651417377098563 0.51833669548442696 1.0464558131556292 0.69785864927742947 1.0000000180025095e-35 0.310513351930157 -1.5197811762403861 0.39049403179559578 -0.43349379308744634 1.0499069536990568 0.73634672438223692
decision_type=2 2 2 2 2 2 2 2 2 2 2 2 2 2 2 2 2 2 2 2 2 2 2 2 2 2 2 2 2 2
left_child=1 6 5 7 9 22 12 10 -6 -4 -3 -9 -1 23 -5 27 21 -10 -19 -12 -11 -16 -2 -7 -25 -14 -15 28 -8 -17
right_child=2 3 4 14 8 13 15 11 17 20 19 -13 25 26 16 29 -18 18 -20 -21 -22 -23 -24 24 -26 -27 -28 -29 -30 -31
leaf_value=-0.039040841394713255 0.0030244976737684561 -0.017697998085930887 0.0075013542846883484 -0.0037419693070630368 0.021992666497653648 0.0096196100575019639 -0.01665321165227281 -0.0075902644689180123 0.023399324898493432 0.013425773386809794 -0.015867979185567125 7.4854218198504592e-05 -0.029150796460690478 0.011959854950539164 0.0029378985269915298 -0.012301400604688996 -0.0028941200026446107 0.028439758426219104 0.039694961458598688 -0.0086116391588597005 0.022757284279927098 0.010986590906525458 -0.0061117872768555815 -0.0039733993679253133 0.0095166298517069745 -0.021448515058578116 0.01845406823383558 -0.011656741409646284 -0.028227767530955291 -0.0013457972818068994
leaf_weight=12.999999999999998 108 54 33 69 56 74 18 98 15.999999999999998 29 33 83 27 58 109 23 41 22 29 229 44 28 15.999999999999998 14.000000000000002 9.9999999999999982 47 39 12.999999999999998 14.999999999999998 11.999999999999998
leaf_count=13 108 54 33 69 56 74 18 98 16 29 33 83 27 58 109 23 41 22 29 229 44 28 16 14 10 47 39 13 15 12
internal_value=0 -0.00813756 0.013542 -0.0052949 0.0219449 0.00750777 -0.0207224 -0.00843148 0.0275217 0.0154669 -0.0109263 -0.00407275 -0.0264864 0.0111083 0.00101443 -0.0145228 0.00286111 0.0321315 0.0348561 -0.00952808 0.0190594 0.00458722 0.00184119 0.00766801 0.00162824 -0.0242691 0.0145777 -0.0190454 -0.0219365 -0.00856093
internal_weight=1460 912 548 744 229 319 168 497 123 106 316 181 87 195 247 81 178 67 51 262 73 137 124 98 24 74 97 46 33 35
internal_count=1460 912 548 744 229 319 168 497 123 106 316 181 87 195 247 81 178 67 51 262 73 137 124 98 24 74 97 46 33 35
is_linear=0
shrinkage=0.05


Tree=6
num_leaves=31
num_cat=0
split_feature=0 19 19 2 16 16 19 8 8 0 0 21 17 15 9 9 21 19 2 4 8 17 17 21 17 0 13 19 8 23
split_gain=58.0869 11.8637 10.0656 4.38807 3.57372 3.42102 2.0612 2.04159 1.45604 1.36584 1.30115 0.826552 0.800689 0.785576 0.769601 0.657286 0.624379 0.580981 0.508874 0.506738 0.436434 0.430879 0.426518 0.423784 0.390216 0.385554 0.37769 0.365715 0.348789 0.323326
threshold=1.0000000180025095e-35 -0.5458770963334747 0.9646647657095001 -1.5682346967302097 0.98101579198790323 1.0000000180025095e-35 -1.8759846400121718 0.81917886089530556 -1.6167586625293728 1.7364522797388575 -0.43349379308744634 -2.2920476866955615 -0.41163839910549943 1.0000000180025095e-35 -1.2484590249404708 0.59417406734852729 -2.2920476866955615 -0.018188164539698012 0.32145260237290113 1.0000000180025095e-35 -0.070730604532102184 -1.2234041531861533 -0.81869096743412706 1.3395150291527245 -0.57773456204419227 1.0131369221300894 -1.0000000180025095e-35 1.8984021014160044 0.91826091439497726 -0.76630390273715032
decision_type=2 2 2 2 2 2 2 2 2 2 2 2 2 2 2 2 2 2 2 2 2 2 2 2 2 2 2 2 2 2
left_child=1 3 7 8 19 16 24 12 -1 23 13 -8 -2 -7 -10 -12 21 -14 -19 -4 -18 -3 -13 -6 -5 -9 -16 -11 -17 -22
right_child=2 5 4 6 9 10 11 25 14 27 15 22 17 -15 26 28 20 18 -20 -21 29 -23 -24 -25 -26 -27 -28 -29 -30 -31
leaf_value=-0.040239031006156362 -0.0051183512033663959 -0.02112545069062045 0.016084685317756232 -0.022115688608347384 0.01771730827803409 0.0020055549624910067 -0.013739885320774982 0.009458616625157441 -0.027599328003826237 0.028206758816592077 0.0011668784393991298 -0.01148056270270938 0.0012045814845400057 -0.0071424102117698717 -0.020496794980524001 0.0051310752050168574 -0.0092340085391884059 -0.0014115204384363071 0.0084915763858546649 0.0089825380412647312 0.0043118576746735112 -0.010076039749064921 -0.0060988387703638375 0.025143985077821531 -0.013833942478594591 0.015980778526621536 -0.010623388347786158 0.037047451389476384 0.013997581700417774 -0.0049662972677297357
leaf_weight=11.999999999999998 23 11.999999999999998 93 43 35 36 77 47 30 25 151 51 69 67 28.999999999999996 44 64 14.999999999999998 92 35 10.999999999999998 35 136 45 22 45 15.000000000000002 24 14.999999999999998 62
leaf_count=12 23 12 93 43 35 36 77 47 30 25 151 51 69 67 29 44 64 15 92 35 11 35 136 45 22 45 15 24 15 62
internal_value=0 -0.00773106 0.0128655 -0.013972 0.020077 -0.00251865 -0.0113398 0.00649436 -0.0240332 0.0259552 0.000660489 -0.00937175 0.00364292 -0.00394032 -0.0213934 0.00291954 -0.0079291 0.00479093 0.00709862 0.0141475 -0.00621528 -0.0129117 -0.00756979 0.0219037 -0.0193229 0.0126556 -0.0171454 0.0325538 0.00739573 -0.00356097
internal_weight=1460 912 548 415 257 497 329 291 86 129 313 264 199 103 74 210 184 176 107 128 137 47 187 80 65 92 44 49 59 73
internal_count=1460 912 548 415 257 497 329 291 86 129 313 264 199 103 74 210 184 176 107 128 137 47 187 80 65 92 44 49 59 73
is_linear=0
shrinkage=0.05


Tree=7
num_leaves=31
num_cat=0
split_feature=0 20 0 21 19 19 19 8 0 8 8 0 21 11 0 17 17 17 20 15 21 16 19 20 2 19 19 21 17 19
split_gain=52.4276 10.8632 9.19633 4.86404 2.72417 2.13996 1.9343 1.79371 1.10763 1.06895 0.976822 0.817449 0.774581 0.773603 0.767942 0.741405 0.594604 0.565504 0.527035 0.495356 0.492076 0.49105 0.521224 0.4033 0.395648 0.418368 0.377498 0.371795 0.367422 0.367358
threshold=1.0000000180025095e-35 -1.8326771814566902 1.0131369221300894 -0.17030210569316415 1.2169278118552052 0.43363746242277568 -1.3995162847813862 0.18481843850423166 -1.1568091506962139 0.87454105731805409 0.75396868892705704 -1.8801245083049818 0.63032985216513648 1.0000000180025095e-35 -0.43349379308744634 -1.0385929296346499 -0.5332862930887674 -1.4082153767376566 0.064875006163151963 1.0000000180025095e-35 -2.2920476866955615 0.98101579198790323 1.6635713349474301 0.21604466279512582 -0.25998964350497911 -0.42554528604088832 0.18982070171943452 1.7321915975247535 -1.2467979789521664 2.0201555597277854
decision_type=2 2 2 2 2 2 2 2 2 2 2 2 2 2 2 2 2 2 2 2 2 2 2 2 2 2 2 2 2 2
left_child=1 6 5 7 10 24 11 8 28 -6 -4 -1 19 26 23 -8 -15 -10 -12 -7 -17 -11 -23 -9 -2 -26 -5 -18 -3 -14
right_child=2 3 4 13 9 12 15 14 17 21 18 -13 29 16 -16 20 27 -19 -20 -21 -22 22 -24 -25 25 -27 -28 -29 -30 -31
leaf_value=-0.035647346582163494 -0.006647415189494842 -0.024721065374997474 0.0068140285918802286 0.00060222932131341698 0.019802862975644632 0.0091316374497351933 -0.021360715520858539 -0.009258905178880731 -0.016024893402895878 0.021448538356985916 0.011931377055264062 -0.021958501308194017 0.012110207089885423 -0.0079976322221087335 0.001206543815677668 -0.014941308313641811 -0.0011995572744632626 -0.0076716632321259422 0.020678389516304199 0.0013119513825959946 -0.0058445855673503102 0.025728909596157635 0.036094605043319863 -0.0019590024862705625 -0.0025888040534521447 0.0043890776453475453 0.0069569459808411149 0.0056368125295017018 -0.014044979805666434 0.02104357166068202
leaf_weight=12.999999999999998 12.999999999999998 9.9999999999999982 33 39 56 83 21 45 22 15.999999999999998 29 74 71 27 64 30 97 277 44 27 30 22 29 33 29 82 59 25 46 13.999999999999998
leaf_count=13 13 10 33 39 56 83 21 45 22 16 29 74 71 27 64 30 97 277 44 27 30 22 29 33 29 82 59 25 46 14
internal_value=0 -0.00734483 0.0122227 -0.0047507 0.0198684 0.00673203 -0.0188292 -0.00760082 -0.00950115 0.0249366 0.0139809 -0.0240136 0.00999805 0.000982203 -0.00284613 -0.0132524 -0.00128453 -0.00828847 0.0172125 0.0072171 -0.010403 0.0292164 0.0316389 -0.00617754 0.00159152 0.00256145 0.00443345 0.000197587 -0.0159644 0.0135898
internal_weight=1460 912 548 744 229 319 168 497 355 123 106 87 195 247 142 81 149 299 73 110 60 67 51 78 124 111 98 122 56 85
internal_count=1460 912 548 744 229 319 168 497 355 123 106 87 195 247 142 81 149 299 73 110 60 67 51 78 124 111 98 122 56 85
is_linear=0
shrinkage=0.05


Tree=8
num_leaves=31
num_cat=0
split_feature=0 20 0 0 19 19 19 8 9 8 20 8 8 0 9 0 0 22 17 10 20 16 16 18 9 22 17 16 4 9
split_gain=47.3205 9.80496 8.30046 4.2854 2.45836 1.93163 1.74526 1.53965 1.47307 0.972739 0.885911 0.8814 0.781833 0.737432 0.726564 0.691815 0.637392 0.600032 0.505141 0.495009 0.475325 0.418316 0.40531 0.394144 0.370844 0.366786 0.3523 0.330063 0.307331 0.30667
threshold=1.0000000180025095e-35 -1.8326771814566902 1.0131369221300894 -0.43349379308744634 1.2169278118552052 0.43363746242277568 -1.3995162847813862 -0.12001433586494938 0.16464853494526621 0.83868662864147081 0.21604466279512582 0.75396868892705704 0.15522662374486371 -1.8801245083049818 0.97062497712941675 -0.43349379308744634 -1.1568091506962139 0.97138559088586973 -0.25256038389661051 1.6976312010729151 0.064875006163151963 1.0000000180025095e-35 1.0000000180025095e-35 1.0563014028759274 0.21398516507700785 0.69785864927742947 -0.56135888400798317 0.98101579198790323 1.0000000180025095e-35 1.0561162425676185
decision_type=2 2 2 2 2 2 2 2 2 2 2 2 2 2 2 2 2 2 2 2 2 2 2 2 2 2 2 2 2 2
left_child=1 6 5 7 11 25 13 16 12 -6 -9 -4 26 -1 18 17 -3 -8 -7 27 -13 -19 -10 -12 -18 -2 -5 -11 -20 -24
right_child=2 3 4 8 9 14 15 10 22 19 23 20 -14 -15 -16 -17 24 21 28 -21 -22 -23 29 -25 -26 -27 -28 -29 -30 -31
leaf_value=-0.033866349602551943 0.0025614522394090695 -0.015765389800144747 0.0064734303940761021 -0.010156497410755897 0.018280425051573967 -0.0014845238576578689 -0.011533135981246013 -0.0077584604329127352 -0.0023295833005803307 0.01823672086206608 -0.0025339827450338998 0.011335013643220473 0.00083300090300220369 -0.020860724508110016 0.014142129857928301 -0.0066914911306517541 -0.010335786663790189 -0.02947793408050849 0.0099174417502062243 0.036341313588261884 0.019644705580123795 -0.015168256422022838 0.0032924060697770933 0.0065692268213593565 -0.0035586699711524263 -0.0055414682971011101 -0.0040330731565689565 0.027407724316945305 0.0039875880513957906 0.0097820918616085151
leaf_weight=12.999999999999998 108 51 33 36 50 13.999999999999998 29 113 27 12.999999999999998 78 29 65 74 59 31 136 11 93 12.999999999999998 44 10 109 13.999999999999998 24 15.999999999999998 69 47 29 22
leaf_count=13 108 51 33 36 50 14 29 113 27 13 78 29 65 74 59 31 136 11 93 13 44 10 109 14 24 16 69 47 29 22
internal_value=0 -0.0069779 0.0116121 -0.00451331 0.018876 0.00639564 -0.0178886 -0.00788282 -0.000238156 0.0236908 -0.00479208 0.0132825 -0.00346982 -0.0228135 0.00949864 -0.0125906 -0.0108829 -0.016236 0.00747962 0.0273866 0.0163524 -0.0226981 0.00323579 -0.00114271 -0.00932263 0.00151152 -0.00613806 0.0254324 0.00851243 0.00438676
internal_weight=1460 912 548 744 229 319 168 416 328 123 205 106 170 87 195 81 211 50 136 73 73 21 158 92 160 124 105 60 122 131
internal_count=1460 912 548 744 229 319 168 416 328 123 205 106 170 87 195 81 211 50 136 73 73 21 158 92 160 124 105 60 122 131
is_linear=0
shrinkage=0.05


Tree=9
num_leaves=31
num_cat=0
split_feature=0 19 19 20 16 16 8 17 0 0 8 0 17 20 1 0 8 0 19 8 2 23 21 1 2 21 23 16 20 19
split_gain=42.7108 8.88826 7.55564 4.05109 2.74235 2.58911 1.47411 1.05335 1.04305 1.01248 1.05651 0.995872 0.61287 0.558914 0.492208 0.452594 0.44983 0.449468 0.444489 0.423037 0.370402 0.357936 0.349411 0.340672 0.336094 0.3241 0.32112 0.301295 0.29298 0.285059
threshold=1.0000000180025095e-35 -0.5458770963334747 0.9646647657095001 -1.8326771814566902 0.98101579198790323 1.0000000180025095e-35 0.75396868892705704 -1.2655130395649767 1.7364522797388575 -1.1568091506962139 -0.76166302620913828 -0.43349379308744634 -0.41163839910549943 -0.91165477850582632 -1.6814675608594121 1.0131369221300894 0.91826091439497726 -1.1568091506962139 -0.2860259946388764 0.39049403179559578 0.12763852041360768 1.1035297229933738 -2.2920476866955615 -1.3171393808914924 0.9513483687406048 1.3395150291527245 -0.26856204599837985 1.0000000180025095e-35 -2.7224062821836461 1.8984021014160044
decision_type=2 2 2 2 2 2 2 2 2 2 2 2 2 2 2 2 2 2 2 2 2 2 2 2 2 2 2 2 2 2
left_child=1 3 6 9 19 13 12 -5 25 10 28 14 -2 22 -7 -8 21 -9 -14 -4 -20 -13 -3 -15 -11 -6 -16 -19 -1 -10
right_child=2 5 4 7 8 11 15 17 29 24 -12 16 18 23 26 -17 -18 27 20 -21 -22 -23 -24 -25 -26 -27 -28 -29 -30 -31
leaf_value=-0.036747440778724126 -0.0047612577847576257 -0.015653999131666686 0.0093201267329950672 -0.018606046827099612 0.015220895908843174 -0.011752141949234856 0.007323205780902467 -0.012742950748304957 0.02435312584751561 -0.016853973816740832 -0.017653589513218007 0.0028489857684435979 -0.00087376437375160428 -0.0097613645529308641 0.0027098215095948046 0.014022930800895334 0.007714828861291787 -0.0086965788948141134 -0.0029954589848685004 0.015111619774842936 0.0062034856330546121 -0.002445422108699137 -0.0077541454011960421 -0.0034753505199265969 -0.007365135818408578 0.021723574589978482 -0.0039013245411083849 -0.0049588216027465293 -0.025805474671346765 0.032171419941847745
leaf_weight=14.000000000000002 23 23 67 24 35 14.999999999999998 57 37 25 71 28 132 37 28 26 46 36 105 11.999999999999998 61 116 42 37 96 10.999999999999998 45 62 113 11.999999999999998 24
leaf_count=14 23 23 67 24 35 15 57 37 25 71 28 132 37 28 26 46 36 105 12 61 116 42 37 96 11 45 62 113 12 24
internal_value=0 -0.00662934 0.011032 -0.0120313 0.0172801 -0.00211752 0.00551179 -0.00857845 0.0224298 -0.0191098 -0.0244442 0.000648015 0.00287376 -0.00682443 -0.00337674 0.0103212 0.00262451 -0.00763202 0.00394129 0.012085 0.00533701 0.00156808 -0.0107929 -0.00489948 -0.0155882 0.0188872 -0.00194226 -0.00676173 -0.0317284 0.0281985
internal_weight=1460 912 548 415 257 497 291 279 129 136 54 313 188 184 103 103 210 255 165 128 128 174 60 124 82 80 88 218 26 49
internal_count=1460 912 548 415 257 497 291 279 129 136 54 313 188 184 103 103 210 255 165 128 128 174 60 124 82 80 88 218 26 49
is_linear=0
shrinkage=0.05


Tree=10
num_leaves=31
num_cat=0
split_feature=0 19 0 15 1 19 19 13 0 19 27 8 8 21 19 21 8 17 21 21 15 1 16 12 23 22 1 17 19 21
split_gain=38.5501 8.03522 6.87249 2.75094 2.67462 2.03695 1.59964 1.39464 1.05073 0.995981 0.847585 0.828698 0.704981 0.624371 0.612362 0.599644 0.44859 0.440703 0.430666 0.424976 0.388538 0.375804 0.36406 0.432098 0.324662 0.30348 0.298969 0.293318 0.290267 0.256552
threshold=1.0000000180025095e-35 -0.86340487532190735 1.0131369221300894 1.0000000180025095e-35 -0.82032822638978364 1.2169278118552052 0.43363746242277568 1.0000000180025095e-35 -1.1568091506962139 -1.7976456092386319 1.0000000180025095e-35 0.87454105731805409 0.75396868892705704 0.63032985216513648 1.3687633475482273 -2.2920476866955615 -1.4216137943533129 -1.1929921796903362 -1.297444662439716 0.51833669548442696 1.0000000180025095e-35 -0.55536227732220567 0.98101579198790323 1.8353795488132845 -0.23112863391293104 0.69785864927742947 -2.012674997193884 0.12408021093620006 2.0201555597277854 1.3395150291527245
decision_type=2 2 2 2 2 2 2 2 2 2 2 2 2 2 2 2 2 2 2 2 2 2 2 2 2 2 2 2 2 2
left_child=1 4 6 10 8 12 25 15 17 16 29 -7 27 20 24 -5 -6 -1 -11 -14 -8 -12 -13 -24 -9 -2 -17 -4 -15 -3
right_child=2 3 5 7 9 11 13 14 -10 18 21 22 19 28 -16 26 -18 -19 -20 -21 -22 -23 23 -25 -26 -27 -28 -29 -30 -31
leaf_value=-0.032328799741635626 0.0022443510621796294 0.0019399693799858637 0.0012972389596149212 -0.013081039378118331 -0.020946950405538213 0.016950930320052373 0.0077558164225967306 0.00073500317455091942 -0.015728938687798736 -0.011111984040586394 -0.011406067169674272 0.018540781094162708 0.0099998223984736657 0.010466001600925749 0.0052673843428989045 -0.014841268227167505 -0.012116312262967837 -0.020894683439570766 -0.0058072361003755424 0.017856756318931934 0.00082911433085181322 -0.0012507785772572556 0.02415546449600918 0.034229952037371669 -0.0050767251358429261 -0.0051260045079804077 -0.0062530990919467807 0.010766624492697236 0.018412123914066169 0.0063700546157855267
leaf_weight=19 108 84 17 52 23 56 83 33 49 64 9.9999999999999982 15.999999999999998 29 71 24 10.999999999999998 40 15.999999999999998 97 44 27 104 35 15.999999999999998 87 15.999999999999998 145 15.999999999999998 13.999999999999998 54
leaf_count=19 108 84 17 52 23 56 83 33 49 64 10 16 29 71 24 11 40 16 97 44 27 104 35 16 87 16 145 16 14 54
internal_value=-3.3879e-08 -0.00629831 0.0104808 -0.00294572 -0.0128709 0.0170904 0.00573397 -0.00580098 -0.0204853 -0.0100125 0.00104065 0.0214736 0.011998 0.00855776 -0.0020137 -0.00842031 -0.0153509 -0.0271235 -0.00791962 0.0147442 0.0060604 -0.0021469 0.0252431 0.027332 -0.00347441 0.00128897 -0.00686279 0.00590547 0.0117827 0.00367744
internal_weight=1460 912 548 604 308 229 319 352 84 224 252 123 106 195 144 208 63 35 161 73 110 114 67 51 120 124 156 33 85 138
internal_count=1460 912 548 604 308 229 319 352 84 224 252 123 106 195 144 208 63 35 161 73 110 114 67 51 120 124 156 33 85 138
is_linear=0
shrinkage=0.05


Tree=11
num_leaves=31
num_cat=0
split_feature=0 20 19 21 16 13 19 8 0 0 0 8 21 15 17 0 22 13 17 4 17 23 16 3 13 20 19 8 4 1
split_gain=34.7957 7.38684 6.22723 3.39288 2.27667 1.35713 1.31704 1.19737 0.856066 0.70733 0.633996 0.61747 0.611542 0.607926 0.589046 0.571192 0.492589 0.409204 0.359449 0.354079 0.330726 0.325374 0.291724 0.288916 0.268713 0.266264 0.252976 0.249883 0.24647 0.239256
threshold=1.0000000180025095e-35 -1.8326771814566902 0.9646647657095001 -0.17030210569316415 0.98101579198790323 1.0000000180025095e-35 -1.4058718926345255 0.86062528496065005 1.7364522797388575 -1.1568091506962139 -1.8801245083049818 0.18481843850423166 2.3341180534085706 1.0000000180025095e-35 0.3463215557133244 -0.43349379308744634 0.97138559088586973 1.0000000180025095e-35 -0.90056935761517287 1.0000000180025095e-35 -0.41163839910549943 1.3325906736019535 1.0000000180025095e-35 1.5423309716393125 1.3763556449855976 1.7782476506819316 -1.5679604787576564 0.78230683089683906 1.0000000180025095e-35 -1.0521734318239144
decision_type=2 2 2 2 2 2 2 2 2 2 2 2 2 2 2 2 2 2 2 2 2 2 2 2 2 2 2 2 2 2
left_child=1 6 7 5 19 9 10 14 23 26 -1 -7 13 27 20 16 -8 -15 -11 -4 -2 -12 -18 -6 -10 -21 -3 -5 -13 -23
right_child=2 3 4 12 8 11 15 -9 24 18 21 28 -14 17 -16 -17 22 -19 -20 25 -22 29 -24 -25 -26 -27 -28 -29 -30 -31
leaf_value=-0.030553322385292472 -0.0044724739446057446 -0.01988848157096763 0.012515070430498657 0.0007454423304020148 0.015402483075754581 -0.0054558806745271795 -0.0097929747380966041 0.0098995551166354504 0.023257253190538216 -0.0101432903790959 -0.015688034072989618 0.0077607405065864962 0.0064394918000722397 -0.0072897500393559874 0.0067120839332292515 -0.0055569779681043643 -0.025098512497273809 -0.00026692452567648339 -0.0059774054922504573 0.0033932274621731235 0.002090340943575996 -0.028895554080471522 -0.013650544164372403 0.022559038317247419 0.031839009741468673 0.012625855409061783 -0.011561216934327143 0.005958691287499855 -0.00060286484500542516 -0.018538862531160476
leaf_weight=11.999999999999998 23 11.999999999999998 93 90 61 98 29 86 36 72 49 9.9999999999999982 42 38 67 31 12.000000000000002 46 190 23 115 10.000000000000002 10.999999999999998 19 12.999999999999998 11.999999999999998 42 31 73 13.999999999999998
leaf_count=12 23 12 93 90 61 98 29 86 36 72 49 10 42 38 67 31 12 46 190 23 115 10 11 19 13 12 42 31 73 14
internal_value=0 -0.0059837 0.00995739 -0.00384438 0.0156298 -0.00622481 -0.015454 0.00494566 0.0203222 -0.00820301 -0.0198364 -0.00276814 0.000943422 -0.000180422 0.00286462 -0.0109582 -0.0141669 -0.00345036 -0.00712448 0.0108956 0.000992671 -0.0180639 -0.0196534 0.017111 0.0255503 0.00657568 -0.0134243 0.00208558 0.000399589 -0.0228852
internal_weight=1460 912 548 744 257 497 168 291 129 316 85 181 247 205 205 83 52 84 262 128 138 73 23 80 49 35 54 121 83 24
internal_count=1460 912 548 744 257 497 168 291 129 316 85 181 247 205 205 83 52 84 262 128 138 73 23 80 49 35 54 121 83 24
is_linear=0
shrinkage=0.05


Tree=12
num_leaves=31
num_cat=0
split_feature=0 19 0 20 16 19 20 17 8 16 0 21 11 15 9 2 8 7 19 5 9 21 2 18 12 20 16 9 1 5
split_gain=31.4068 6.7013 5.73427 3.06157 1.9967 1.66739 1.42573 0.84369 0.839227 0.796955 0.787049 0.624318 0.53432 0.532451 0.47436 0.4428 0.404049 0.397529 0.386334 0.358378 0.357314 0.355273 0.351033 0.332104 0.494717 0.312025 0.280198 0.252158 0.251995 0.250348
threshold=1.0000000180025095e-35 -0.5458770963334747 1.0131369221300894 -1.8326771814566902 1.0000000180025095e-35 1.2715276808874603 0.72371898951849778 -1.2655130395649767 0.87454105731805409 -1.6961487992314208 -0.43349379308744634 0.51833669548442696 1.0000000180025095e-35 1.0000000180025095e-35 0.67190372950169641 -1.2775135737912693 0.39049403179559578 -0.59712423252841673 -0.42554528604088832 -0.90271280049492197 0.75099936091355302 -1.297444662439716 -1.5197811762403861 1.3926956888227429 1.8353795488132845 -3.6139574851077452 -1.6961487992314208 0.69954293027238057 -1.383380868158387 1.0000000180025095e-35
decision_type=2 2 2 2 2 2 2 2 2 2 2 2 2 2 2 2 2 2 2 2 2 2 2 2 2 2 2 2 2 2
left_child=1 3 6 9 15 11 12 -5 -7 22 13 -4 18 -6 -12 -3 27 -11 -2 -13 26 -9 -1 24 -10 -19 -17 -8 -15 -14
right_child=2 4 5 7 10 8 16 21 23 17 14 19 29 28 -16 20 -18 25 -20 -21 -22 -23 -24 -25 -26 -27 -28 -29 -30 -31
leaf_value=-0.029286777073744531 -0.0021626803147299345 -0.0089305282318775814 0.0069927643961650247 -0.016348516251558264 0.0019773733777052761 0.015259626875073665 0.0032218273140071836 -0.0093201962994829048 0.021914849982657164 -0.0089519645474137651 0.0010687426878598129 0.018487598821744246 0.00090095245854300522 -0.010826289007053664 0.0066158590362153675 -0.010031287239572794 0.013220319698243471 -0.024130904731373699 0.0048045256160415594 0.010922034061246852 0.0042202010459199144 -0.0052686481749974175 -0.018097847123642978 0.015859868567602728 0.032603460949774982 -0.014976030416128803 -0.0035020829784227119 0.0094960020907470955 -0.0037485124297396109 -0.00724154088480824
leaf_weight=15.000000000000002 23 73 50 24 36 55 26 79 32 25 159 30 21 17 51 21 46 10.999999999999998 143 34 11.999999999999998 176 13.999999999999998 10.999999999999998 17 71 78 43 50 17
leaf_count=15 23 73 50 24 36 55 26 79 32 25 159 30 21 17 51 21 46 11 143 34 12 176 14 11 17 71 78 43 50 17
internal_value=-1.37698e-08 -0.00568492 0.00946001 -0.0103754 -0.00176714 0.0154976 0.00512389 -0.0073734 0.0197516 -0.0165294 0.000661329 0.0112006 0.00261057 -0.00291635 0.00241853 -0.0059007 0.00957734 -0.0145222 0.00383611 0.0144785 -0.00390298 -0.00652611 -0.0239106 0.0238576 0.0256392 -0.016213 -0.00489299 0.00713988 -0.00555318 -0.00272953
internal_weight=1460 912 548 415 497 229 319 279 115 136 313 114 204 103 210 184 115 107 166 64 111 255 29 60 49 82 99 69 67 38
internal_count=1460 912 548 415 497 229 319 279 115 136 313 114 204 103 210 184 115 107 166 64 111 255 29 60 49 82 99 69 67 38
is_linear=0
shrinkage=0.05


Tree=13
num_leaves=31
num_cat=0
split_feature=19 11 16 19 21 17 17 26 14 13 9 14 9 9 21 19 5 24 2 7 2 20 20 23 9 22 9 2 22 21
split_gain=25.1854 8.95483 4.36874 3.94286 1.8477 1.34617 1.34228 1.19225 1.12643 0.843472 0.707506 0.686636 0.645924 0.623583 0.587043 0.554946 0.538889 0.53459 0.385091 0.367546 0.337255 0.323953 0.260185 0.260055 0.248368 0.241304 0.288201 0.232872 0.221354 0.190309
threshold=0.034581925477793936 1.0000000180025095e-35 0.98101579198790323 -1.4058718926345255 -2.2920476866955615 -1.1415257630051074 -0.41163839910549943 1.0000000180025095e-35 0.2464049231463615 1.0000000180025095e-35 1.0448039051286362 -0.21214236141106738 0.90525974051132618 0.61406348030534008 1.7321915975247535 1.324883204924163 -2.0598336861161561 1.0000000180025095e-35 -1.4713276557505628 -0.59712423252841673 -1.5682346967302097 -1.8850254351741238 -3.3111105974219179 1.7686723580103636 1.6750922993105455 2.4863788054835809 -0.11238330686551937 -1.3744206147709159 1.2614729043110338 0.51833669548442696
decision_type=2 2 2 2 2 2 2 2 2 2 2 2 2 2 2 2 2 2 2 2 2 2 2 2 2 2 2 2 2 2
left_child=3 2 6 5 21 17 13 15 20 14 16 19 27 -2 25 -4 -8 18 -1 -7 -6 23 -21 -5 -9 26 -3 -11 -13 -17
right_child=1 9 7 4 8 11 10 24 -10 12 -12 28 -14 -15 -16 29 -18 -19 -20 22 -22 -23 -24 -25 -26 -27 -28 -29 -30 -31
leaf_value=-0.030983958590634793 -0.0064710055189676268 -0.012744243139846019 0.010434277705746814 -0.011129725266740272 -0.01079776388233198 -0.008512512961465676 0.01392163399456442 0.021057991884226086 0.00076452107050111514 -0.0045058961396455604 0.013171782676783051 -0.0056964348270944678 0.0068337748702365451 0.0066060029948761777 0.0063890623537215087 0.013565452554321246 0.0060380580417071896 -0.014284025744043069 -0.018843833913169031 -0.023054520164588494 -0.004404510807083194 -0.0080887148536631075 -0.014376132263988421 -0.019612119945308783 0.029728678261335063 -0.012684537635272875 -0.0039427779520810223 0.00035178434843406866 -0.013834074925590349 0.019746585698101112
leaf_weight=14.000000000000002 26 10.999999999999998 61 32 23 23 24 40 130 32 52 55 35 13.999999999999998 9.9999999999999982 21 236 20 12.999999999999998 10.999999999999998 212 68 46 12.999999999999998 10.999999999999998 12.999999999999998 63 107 9.9999999999999982 34
leaf_count=14 26 11 61 32 23 23 24 40 130 32 52 55 35 14 10 21 236 20 13 11 212 68 46 13 11 13 63 107 10 34
internal_value=0 0.00604736 0.00989409 -0.00713116 -0.00469842 -0.0131845 0.00673164 0.0165561 -0.00296666 -0.00131788 0.00783746 -0.0107923 0.000762377 -0.00188105 -0.00505432 0.0137418 0.0067682 -0.0205502 -0.0251664 -0.0139001 -0.00503279 -0.010287 -0.0160634 -0.0135951 0.0229434 -0.00637598 -0.0052594 -0.000763177 -0.00695801 0.0173985
internal_weight=1460 790 519 670 478 192 352 167 365 271 312 145 174 40 97 116 260 47 27 80 235 113 57 45 51 87 74 139 65 55
internal_count=1460 790 519 670 478 192 352 167 365 271 312 145 174 40 97 116 260 47 27 80 235 113 57 45 51 87 74 139 65 55
is_linear=0
shrinkage=0.05


Tree=14
num_leaves=31
num_cat=0
split_feature=0 20 0 0 19 20 17 9 13 9 1 10 1 5 0 17 23 9 21 1 9 21 23 18 19 20 1 1 9 9
split_gain=25.7613 5.50674 4.73825 2.61873 1.36177 1.20522 0.977509 0.841158 0.775053 0.734503 0.708616 0.671975 0.561373 0.535594 0.39212 0.38733 0.377148 0.361529 0.324345 0.317571 0.313421 0.313126 0.292817 0.288958 0.282771 0.277754 0.261887 0.249693 0.24527 0.205208
threshold=1.0000000180025095e-35 -1.8326771814566902 1.0131369221300894 -0.43349379308744634 0.80943835941048659 0.72371898951849778 -1.0385929296346499 0.16464853494526621 1.0000000180025095e-35 -0.72168043422317951 -0.62160376458910027 1.6976312010729151 -0.78720748275633645 -0.90271280049492197 -1.1568091506962139 0.35567908601972958 1.0550762025035503 0.24740842959419826 1.0259113955173484 0.76946746801568422 -0.61780340834398439 1.4822239527868533 1.0550762025035503 0.31108665990837209 2.4634796641806145 0.98215681317346171 0.073931851713291877 -1.0852941754573615 1.2657831054101891 -1.6547864773382639
decision_type=2 2 2 2 2 2 2 2 2 2 2 2 2 2 2 2 2 2 2 2 2 2 2 2 2 2 2 2 2 2
left_child=1 6 5 8 19 15 14 10 12 29 -5 13 20 25 16 22 -1 -10 -9 -4 -3 -14 -2 -20 -15 -6 -11 -7 -29 -8
right_child=2 3 4 7 11 27 9 18 17 26 -12 -13 21 24 -16 -17 -18 -19 23 -21 -22 -23 -24 -25 -26 -27 -28 28 -30 -31
leaf_value=-0.016789477594265929 0.0014381434238649729 -0.017416472729297819 -0.00083360841133065162 -0.0098313936860925048 0.013855845983125649 0.0011128553719660797 -0.020481692236948838 0.00095751517744092787 -0.0045852010850189326 -0.0085520496148693958 -0.0009948796349445229 0.025144167873873205 -0.0065051632961907989 0.011044598017425022 -0.014335297110432918 0.0053300065708975488 -0.028364339146831653 0.0010787536156591365 0.00081198222971037729 0.0089713937940414917 -0.0094045395152452024 0.002512271960566451 -0.0070687638776720275 0.0083008157368170618 0.019438337436028071 0.020431009938317497 -0.00072145734731570994 0.008401025623358975 0.015179622681493836 -0.012850001186613761
leaf_weight=14.000000000000002 123 15.999999999999998 9.9999999999999982 27 25 9.9999999999999982 10.999999999999998 101 81 33 143 19 211 69 27 70 14.999999999999998 43 20 45 55 9.9999999999999982 10.999999999999998 37 11.999999999999998 49 15.999999999999998 89 15.999999999999998 52
leaf_count=14 123 16 10 27 25 10 11 101 81 33 143 19 211 69 27 70 15 43 20 45 55 10 11 37 12 49 16 89 16 52
internal_value=-7.59095e-08 -0.00514877 0.00856759 -0.00330154 0.0140559 0.00462579 -0.0133257 3.76692e-05 -0.00593553 -0.0106168 -0.00240176 0.016226 -0.00734286 0.0151281 -0.0187318 0.00231475 -0.0228014 -0.00261713 0.00266552 0.00717975 -0.0112193 -0.00609478 0.000735609 0.00568253 0.0122965 0.0182186 -0.00600599 0.00872047 0.00944006 -0.0141935
internal_weight=1460 912 548 744 229 319 168 328 416 112 170 174 292 155 56 204 29 124 158 55 71 221 134 57 81 74 49 115 105 63
internal_count=1460 912 548 744 229 319 168 328 416 112 170 174 292 155 56 204 29 124 158 55 71 221 134 57 81 74 49 115 105 63
is_linear=0
shrinkage=0.05


Tree=15
num_leaves=31
num_cat=0
split_feature=19 11 5 1 19 9 17 9 14 24 1 9 19 2 17 15 17 14 13 9 15 23 19 17 18 9 23 2 21 7
split_gain=20.6974 7.39797 3.58985 3.57326 1.69206 1.64029 1.24187 0.936526 0.841757 0.789809 0.767655 0.833038 0.553342 0.481313 0.478685 0.4008 0.395182 0.305237 0.276968 0.246434 0.22369 0.207782 0.202987 0.202364 0.201252 0.264273 0.186409 0.184107 0.162419 0.153699
threshold=0.034581925477793936 1.0000000180025095e-35 -2.0598336861161561 -0.72096599548944196 -1.2265231427977092 1.2733005937496704 -0.41163839910549943 -0.61780340834398439 0.32977715670225766 1.0000000180025095e-35 -1.94643350992699 0.90525974051132618 1.3857340499008648 -0.40535020497444918 -1.1929921796903362 1.0000000180025095e-35 1.0130455900446973 -1.2126091640818211 1.0000000180025095e-35 -0.11238330686551937 1.0000000180025095e-35 1.7686723580103636 -1.5679604787576564 -0.78360022878510738 1.2755001729707642 1.3298775521349373 1.1872301121324833 0.36990612286272445 -2.2920476866955615 -0.59712423252841673
decision_type=2 2 2 2 2 2 2 2 2 2 2 2 2 2 2 2 2 2 2 2 2 2 2 2 2 2 2 2 2 2
left_child=3 2 12 7 13 6 17 9 20 14 -3 15 -2 22 -1 26 -8 -4 21 -17 -6 -9 23 -5 25 -14 -12 -7 -22 -11
right_child=1 10 5 4 8 27 16 18 -10 29 11 -13 24 -15 -16 19 -18 -19 -20 -21 28 -23 -24 -25 -26 -27 -28 -29 -30 -31
leaf_value=-0.026873394641545117 0.013548908653399703 -0.010392786304988163 0.00023948784859080592 -0.016574876169918078 -0.0022666285770431582 0.0096807400433262178 0.0057564937018924215 -0.008029477706074456 0.0010046688133047916 -0.0084486708300332697 0.0020140377818998289 0.0062710064503664377 0.018880726123624958 -0.0053925553516951351 -0.016141453515373633 -0.0098867025311443341 0.010360039153228286 -0.0094845771013567955 -0.0026212368418913178 -0.0027929501446098551 -0.0090818110606011894 -0.015024880119050288 -0.0086824117897411623 -0.0095658715042250837 0.015722957322948542 0.027439530553851389 -0.0030783289018281421 0.01663366314682313 -0.0046193495794450102 -0.013869579185767728
leaf_weight=19 55 21 21 24 90 12.999999999999998 266 39 122 21 71 39 21 68 24 13.999999999999998 57 12.999999999999998 17 102 26 14.999999999999998 47 19 14.999999999999998 17 24 41 101 38
leaf_count=19 55 21 21 24 90 13 266 39 122 21 71 39 21 68 24 14 57 13 17 102 26 15 47 19 15 17 24 41 101 38
internal_value=-4.29291e-08 0.00548204 0.00897844 -0.00646472 -0.00430872 0.00684446 0.00561342 -0.012655 -0.00231485 -0.0157299 -0.00121226 -0.000438716 0.0170934 -0.00858311 -0.0209002 -0.00168151 0.00657073 -0.00346553 -0.00822899 -0.00365418 -0.00418339 -0.00998432 -0.0109873 -0.0134924 0.020759 0.022729 0.000722094 0.0149712 -0.0055375 -0.0119503
internal_weight=1460 790 519 670 497 411 357 173 339 102 271 250 108 158 43 211 323 34 71 116 217 54 90 43 53 38 95 54 127 59
internal_count=1460 790 519 670 497 411 357 173 339 102 271 250 108 158 43 211 323 34 71 116 217 54 90 43 53 38 95 54 127 59
is_linear=0
shrinkage=0.05


Tree=16
num_leaves=31
num_cat=0
split_feature=0 19 0 20 15 19 20 13 8 17 0 8 13 11 11 23 19 8 20 1 16 19 16 19 17 1 23 12 19 5
split_gain=21.1231 4.5744 3.9057 1.93805 1.53158 1.12962 1.02661 0.769693 0.646687 0.559489 0.5246 0.435599 0.398985 0.389296 0.372759 0.364308 0.344897 0.300788 0.29771 0.289159 0.273497 0.270103 0.249991 0.24054 0.235069 0.226863 0.216795 0.200228 0.189996 0.188552
threshold=1.0000000180025095e-35 -0.72484006726252714 1.0131369221300894 -1.8326771814566902 1.0000000180025095e-35 1.2715276808874603 0.72371898951849778 1.0000000180025095e-35 0.87454105731805409 -1.2655130395649767 -1.8801245083049818 0.75396868892705704 1.0000000180025095e-35 1.0000000180025095e-35 1.0000000180025095e-35 1.7686723580103636 1.3687633475482273 0.39049403179559578 -0.043352170943130312 -2.2942013180781857 1.0000000180025095e-35 -0.42554528604088832 0.98101579198790323 1.1747662682459288 0.12408021093620006 -0.55536227732220567 -0.23112863391293104 1.2199330303779619 0.18982070171943452 1.0000000180025095e-35
decision_type=2 2 2 2 2 2 2 2 2 2 2 2 2 2 2 2 2 2 2 2 2 2 2 2 2 2 2 2 2 2
left_child=1 3 6 10 13 11 14 19 -7 -5 -1 24 15 28 21 -12 26 -8 -13 -6 -11 -2 -10 -21 -4 -15 -9 -24 -3 -16
right_child=2 4 5 9 7 8 17 16 22 20 12 18 -14 25 29 -17 -18 -19 -20 23 -22 -23 27 -25 -26 -27 -28 -29 -30 -31
leaf_value=-0.022936790186829922 -0.0019441642366618446 0.0011435695984516527 0.00024662016362454449 -0.013630927746641493 -0.013719609651488133 0.012298984442043687 0.0058534198416032735 0.0011571585709185264 0.014143183468025103 -0.0073810787537534452 -0.01235156696691684 0.0071358067769093664 -0.0068418481176899335 -0.0061034951053763296 0.00073428299496999133 -0.019564757060582805 0.0042130023481534553 0.011102351467263774 0.013532774789060563 -0.0061493942546237837 -0.0037568179238989547 0.0038797366672693235 0.018220727734677308 0.0014570904492174734 0.0085917231770805021 0.00037226446673320132 -0.0037483743154818009 0.02506530888958218 0.0059872426199039826 -0.0063294828038822559
leaf_weight=14.999999999999998 23 35 17 24 11.999999999999998 55 69 31 14.999999999999998 104 62 29 22 14.999999999999998 21 25 24 46 51 160 106 143 22 10.999999999999998 17 136 81 23 49 17
leaf_count=15 23 35 17 24 12 55 69 31 15 104 62 29 22 15 21 25 24 46 51 160 106 143 22 11 17 136 81 23 49 17
internal_value=-1.6244e-07 -0.00466242 0.00775795 -0.00906776 -0.00181463 0.0127409 0.00417897 -0.00407139 0.0162433 -0.00638539 -0.0141247 0.00920232 -0.0129055 0.00124671 0.00204582 -0.0144321 -0.00121769 0.00795812 0.0112213 -0.00618925 -0.00555434 0.00306973 0.019848 -0.00565711 0.00443517 -0.000268073 -0.00238615 0.021735 0.00397537 -0.0024135
internal_weight=1460 912 548 358 554 229 319 319 115 234 124 114 109 235 204 87 136 115 80 183 210 166 60 171 34 151 112 45 84 38
internal_count=1460 912 548 358 554 229 319 319 115 234 124 114 109 235 204 87 136 115 80 183 210 166 60 171 34 151 112 45 84 38
is_linear=0
shrinkage=0.05


Tree=17
num_leaves=31
num_cat=0
split_feature=9 4 19 19 21 4 2 26 21 17 9 17 2 13 9 17 22 20 19 5 17 2 17 14 19 22 2 2 19 14
split_gain=17.0414 5.88561 2.96575 2.60474 1.50217 0.933657 0.917865 0.866595 0.852687 0.608113 0.501325 0.457767 0.457639 0.440444 0.430181 0.377928 0.318189 0.492306 0.315534 0.269825 0.262201 0.247881 0.224964 0.203371 0.186657 0.181757 0.18169 0.177202 0.171668 0.158004
threshold=0.025844514133911277 1.0000000180025095e-35 -1.4058718926345255 0.99279099657396752 -2.2920476866955615 1.0000000180025095e-35 -1.5682346967302097 1.0000000180025095e-35 1.0000000180025095e-35 0.035183673025350339 0.93127165394820943 -0.88653306215556493 -0.69607132791338922 1.0000000180025095e-35 1.3298775521349373 -1.4082153767376566 2.3207750873163451 -3.4944520055640793 -1.8759846400121718 -0.90271280049492197 -0.41163839910549943 0.99980188923042812 -0.018622126236479748 -2.2130759667525743 2.3900512214071452 1.3811143900335294 0.85444132776095805 0.90289484825078137 2.6499590478941917 -0.46225906207875578
decision_type=2 2 2 2 2 2 2 2 2 2 2 2 2 2 2 2 2 2 2 2 2 2 2 2 2 2 2 2 2 2
left_child=2 3 6 9 15 -6 16 14 13 20 12 -7 -10 -3 21 -4 17 -1 -8 -11 -2 -5 -14 -17 -12 -15 -9 -13 -16 -20
right_child=1 8 4 7 5 11 18 26 10 19 24 27 22 25 28 23 -18 -19 29 -21 -22 -23 -24 -25 -26 -27 -28 -29 -30 -31
leaf_value=-0.024525743157237212 -0.0060722041699179299 -0.0052585878192910615 -0.017634255279339411 0.0079640246161965678 0.0024248572450138333 -0.0075862293452097678 -0.01183120912426085 0.024463481386820161 -0.0050249966977433417 0.012689594398835768 0.005148738522429158 -0.0031326232394491673 -0.00013439616236293761 0.0017615443890383394 0.013074101745395389 -0.014333272889784313 -0.024733251555197681 -0.011517120397163261 -0.01039639576924275 0.0059449054185450661 0.0023619876489982461 0.013128909849675513 0.0044394498268071963 -0.0070953152615037072 0.012577748073977197 -0.0028633277016002624 0.016808579245768878 0.001020692670663084 0.019907567965626996 -0.0052497067163973735
leaf_weight=9.9999999999999947 10.999999999999998 75 10.999999999999998 90 82 58 59 9.9999999999999982 26 17 39 213 49 54 36 10.999999999999998 10.999999999999998 28.000000000000004 22 126 56 32 59 95 10.999999999999998 35 43 29 12.999999999999998 49
leaf_count=10 11 75 11 90 82 58 59 10 26 17 39 213 49 54 36 11 11 28 22 126 56 32 59 95 11 35 43 29 13 49
internal_value=-4.79206e-08 0.00502946 -0.00580177 0.00891366 -0.00381951 -0.00229938 -0.0113244 0.0126656 0.00018381 0.00490885 0.0025217 -0.00359237 0.000922954 -0.00243614 0.0109256 -0.00877778 -0.0171681 -0.0149591 -0.00911678 0.00675105 0.000969108 0.00932381 0.00235983 -0.00785242 0.00679531 -5.17255e-05 0.0182667 -0.00263282 0.014901 -0.00685274
internal_weight=1460 782 678 434 499 382 179 224 348 210 184 300 134 164 171 117 49 38 130 143 67 122 108 106 50 89 53 242 49 71
internal_count=1460 782 678 434 499 382 179 224 348 210 184 300 134 164 171 117 49 38 130 143 67 122 108 106 50 89 53 242 49 71
is_linear=0
shrinkage=0.05


Tree=18
num_leaves=31
num_cat=0
split_feature=0 20 16 0 0 20 11 15 20 21 9 9 1 13 1 23 1 1 23 14 9 17 13 21 13 3 23 11 9 9
split_gain=17.2996 3.83384 3.21605 1.48433 1.12254 1.10126 0.829488 0.673426 0.612064 0.553585 0.485912 0.449402 0.420722 0.413715 0.375216 0.366696 0.293829 0.287732 0.279746 0.257319 0.275593 0.246115 0.240409 0.224813 0.223648 0.214764 0.214243 0.196343 0.191429 0.187656
threshold=1.0000000180025095e-35 -1.1951993072856268 0.98101579198790323 -0.43349379308744634 -1.1568091506962139 0.42038188494177869 -1.0118680713594104 1.0000000180025095e-35 -3.4272433067087724 2.3341180534085706 0.40699858090953839 0.8943789027732223 -1.0190526881904671 1.0000000180025095e-35 -1.3171393808914924 1.7686723580103636 -0.62160376458910027 -2.012674997193884 2.1584870653651129 1.2051856090391675 0.91481344367286754 -0.38356580818628377 1.3763556449855976 1.0259113955173484 1.0000000180025095e-35 1.3656565085225105 -0.13422159293328437 1.0000000180025095e-35 -0.97876347572274225 -0.38619773208588942
decision_type=2 2 2 2 2 2 2 2 2 2 2 2 2 2 2 2 2 2 2 2 2 2 2 2 2 2 2 2 2 2
left_child=1 4 5 9 8 19 22 -6 -1 13 16 -8 15 17 -7 -10 -5 -3 29 20 21 -2 -4 -12 -16 -13 -26 -25 -15 -9
right_child=2 3 6 10 7 14 11 18 12 -11 23 25 -14 28 24 -17 -18 -19 -20 -21 -22 -23 -24 27 26 -27 -28 -29 -30 -31
leaf_value=-0.024460334536137929 -0.0051911486842626739 -0.013822476140863783 0.01569719184900736 -0.0066235853877514329 -0.0010567470313527889 -0.0011175331129978639 0.0073084228080126093 -0.0090224873316152032 -0.010755582309162355 0.0066743013690514236 0.0014090295482646587 0.0093008696573016088 -0.0088333134558047279 -0.0083485157806747739 0.0043090122405149587 -0.021589957598568341 -0.00034307952409388671 -0.0055001406553218841 -0.014225801183934718 0.0090552680572800401 0.0077844003056042792 0.0014981262985346857 0.023471410882921977 0.010016536182294217 0.010834562596970755 0.016480053462260183 0.0066883465546329224 0.0029304513562198177 -0.0013645946853671315 -0.0049574079547099947
leaf_weight=11.999999999999998 14.999999999999998 10.999999999999998 49 21 38 11.999999999999998 63 88 14.999999999999998 10.999999999999998 69 17 41 10.999999999999998 33 17 166 216 19 11.999999999999998 15.999999999999998 161 12.999999999999998 18 70 29 58 22 94 43
leaf_count=12 15 11 49 21 38 12 63 88 15 11 69 17 41 11 33 17 166 216 19 12 16 161 13 18 70 29 58 22 94 43
internal_value=-5.01975e-08 -0.00421933 0.00702085 -0.0020993 -0.0091795 0.00443891 0.0127097 -0.00701764 -0.0139538 -0.00433804 0.000493287 0.0100706 -0.0122167 -0.0047046 0.00737436 -0.0165319 -0.00105137 -0.00590622 -0.00852423 0.00194685 0.00149952 0.000924914 0.0173389 0.00314773 0.00801043 0.0138403 0.00896038 0.00613339 -0.00210173 -0.00769245
internal_weight=1460 912 548 639 273 377 171 188 85 343 296 109 73 332 173 32 187 227 150 204 192 176 62 109 161 46 128 40 105 131
internal_count=1460 912 548 639 273 377 171 188 85 343 296 109 73 332 173 32 187 227 150 204 192 176 62 109 161 46 128 40 105 131
is_linear=0
shrinkage=0.05


Tree=19
num_leaves=31
num_cat=0
split_feature=9 4 1 5 19 19 14 21 13 13 1 2 19 2 19 19 20 1 13 22 1 22 9 2 19 19 18 18 1 3
split_gain=14.0382 4.83756 2.86028 2.16879 1.25663 1.11178 0.759462 0.709388 0.631124 0.548127 0.53818 0.500866 0.392524 0.36801 0.355343 0.342758 0.33802 0.313841 0.286973 0.275088 0.251329 0.236211 0.231101 0.1849 0.180505 0.174359 0.170123 0.33944 0.231972 0.157329
threshold=0.025844514133911277 1.0000000180025095e-35 -0.72096599548944196 -2.0598336861161561 -1.2265231427977092 1.0160540730727714 0.20471880636841341 1.7321915975247535 1.0000000180025095e-35 1.0000000180025095e-35 -2.2942013180781857 -0.84143188938285929 -0.6760660614430557 -0.3568966844846258 2.6997573298871962 1.3857340499008648 -0.78787798167810885 0.60386374984844793 1.3763556449855976 0.93826484725242243 -1.6814675608594121 1.2032307963200004 -0.87213292825867683 1.096708930210075 2.0753599181647595 0.22720499830174914 1.0298405703677014 0.71805945687124384 1.1669163916170511 1.4746671922809782
decision_type=2 2 2 2 2 2 2 2 2 2 2 2 2 2 2 2 2 2 2 2 2 2 2 2 2 2 2 2 2 2
left_child=2 3 9 15 13 19 16 8 10 11 -3 12 20 22 29 -2 -6 -12 21 25 -1 -10 -4 -8 -9 -5 27 -17 -28 -7
right_child=1 7 4 5 6 14 23 24 18 -11 17 -13 -14 -15 -16 26 -18 -19 -20 -21 -22 -23 -24 -25 -26 -27 28 -29 -30 -31
leaf_value=-0.023667639761957002 0.01147948335991306 -0.013728029800146251 -0.0082652360615823976 0.0010545676126882386 -0.0080986617209197389 0.0079565801930320118 0.00087646147133911177 0.0040703076035276137 0.0012079019144905427 -0.0058202806454202977 -0.0037039223310784799 -0.0087195700963452298 -0.010060222512112792 -0.0042010438899774847 0.018185109235718509 0.013531873228150937 -0.0026260876614493047 0.0041403185936692436 0.0044150026995274433 -0.0036641162908562365 -0.015456523754505881 -0.0032403444311038636 -0.015801231831088849 0.0079804726145960604 0.011250335190268383 0.0049239505161847285 0.018684878696807065 0.024808258868097736 0.0086873823315832266 0.012658029140016805
leaf_weight=12.999999999999998 51 11.999999999999998 75 37 33 106 112 34 103 43 83 56 27 60 10.999999999999998 12.000000000000002 200 14.999999999999998 47 11.999999999999998 37 42 11.999999999999998 9.9999999999999982 11.999999999999998 143 13.000000000000002 15.999999999999998 10.999999999999998 22
leaf_count=13 51 12 75 37 33 106 112 34 103 43 83 56 27 60 11 12 200 15 47 12 37 42 12 10 12 143 13 16 11 22
internal_value=-4.89822e-08 0.00456478 -0.00526582 0.00808622 -0.00334132 0.00611159 -0.0017296 0.000171564 -0.000708062 -0.0107517 -0.00372866 -0.0123417 -0.014968 -0.0072298 0.00951945 0.0144258 -0.00340363 -0.00249787 0.00101999 0.00364146 -0.0176057 -7.72422e-05 -0.00931213 0.00146346 0.00595626 0.00413146 0.0173031 0.0199999 0.014129 0.00876947
internal_weight=1460 782 678 434 502 331 355 348 302 176 110 133 77 147 139 103 233 98 192 192 50 145 87 122 46 180 52 28 24 128
internal_count=1460 782 678 434 502 331 355 348 302 176 110 133 77 147 139 103 233 98 192 192 50 145 87 122 46 180 52 28 24 128
is_linear=0
shrinkage=0.05


Tree=20
num_leaves=31
num_cat=0
split_feature=0 19 0 17 15 21 20 20 20 16 0 23 7 19 11 19 8 8 8 11 0 8 19 0 22 8 8 19 16 3
split_gain=14.1831 3.19074 2.73036 1.52895 1.04367 0.789853 0.723801 0.722144 0.521225 0.50915 0.422017 0.3528 0.315707 0.274367 0.273412 0.260353 0.270508 0.241717 0.227741 0.22561 0.223523 0.206758 0.193521 0.158543 0.1585 0.148136 0.145414 0.137778 0.131588 0.129905
threshold=1.0000000180025095e-35 -0.5458770963334747 1.0131369221300894 -1.1929921796903362 1.0000000180025095e-35 0.51833669548442696 0.72371898951849778 -1.8326771814566902 -0.084595311813837046 0.98101579198790323 -1.8801245083049818 -0.34124232673311483 -0.59712423252841673 1.1870595329448315 1.0000000180025095e-35 2.9488021103171005 1.6232832052541994 0.39049403179559578 0.78230683089683906 1.0000000180025095e-35 -1.1568091506962139 -1.0081645803093331 -0.42554528604088832 -0.43349379308744634 0.92970385471156025 0.45887770167480751 0.9602169495735503 -0.47528170531338648 1.0000000180025095e-35 1.3074451809166681
decision_type=2 2 2 2 2 2 2 2 2 2 2 2 2 2 2 2 2 2 2 2 2 2 2 2 2 2 2 2 2 2
left_child=1 3 6 10 19 13 14 12 25 -7 -1 18 -5 -4 22 16 -11 -8 -10 -3 -9 -12 -2 -13 -14 27 -21 -6 -22 -24
right_child=2 4 5 7 8 9 17 20 11 15 21 23 24 -15 -16 -17 -18 -19 -20 26 28 -23 29 -25 -26 -27 -28 -29 -30 -31
leaf_value=-0.023609375929856277 -0.0017923609802466224 0.0036002426609321302 0.0042419150420184275 -0.0041472592878235596 0.00039528054226448703 0.0090380805151101164 0.0046504730468256671 -0.0079501422370238696 0.00011748898105918666 0.012918688737029414 -0.016155537508888467 -0.0041710860602984148 -0.0087789358107301027 0.0098403205986518968 -0.0022457471549103243 0.022179969204752573 0.021862281768114777 0.0093560766921532215 0.0078562865202593691 -0.00047353225110090003 -0.005017501684377158 -0.0098156112899354334 0.0027167731908363984 -0.00045049484384771974 -0.01348405746805331 -0.010059905656003192 0.0041620090216824574 -0.0054701937050203112 -0.0025385395542527854 0.0086524847653005037
leaf_weight=9.9999999999999982 23 82 48 22 10.999999999999998 54 69 37 30 64 22 70 39 41 38 11.999999999999998 9.9999999999999982 46 13.999999999999998 109 104 33 133 49 35 15.999999999999998 20 96 113 9.9999999999999982
leaf_count=10 23 82 48 22 11 54 69 37 30 64 22 70 39 41 38 12 10 46 14 109 104 33 133 49 35 16 20 96 113 10
internal_value=0 -0.00382038 0.00635713 -0.00705703 -0.00111665 0.0105236 0.00336437 -0.00574644 -0.00308522 0.012869 -0.0141044 -0.00122694 -0.0094451 0.00682739 0.0015728 0.0152674 0.0141368 0.00653771 0.00259242 0.0015493 -0.00434623 -0.0123631 0.00245002 -0.00264345 -0.0110126 -0.00554345 0.000241548 -0.00486255 -0.00372909 0.00313593
internal_weight=1460 912 548 415 497 229 319 350 286 140 65 163 96 89 204 86 74 115 44 211 254 55 166 119 74 123 129 107 217 143
internal_count=1460 912 548 415 497 229 319 350 286 140 65 163 96 89 204 86 74 115 44 211 254 55 166 119 74 123 129 107 217 143
is_linear=0
shrinkage=0.05


Tree=21
num_leaves=31
num_cat=0
split_feature=9 4 1 16 2 19 9 21 19 20 9 24 2 4 22 20 13 1 9 9 13 23 13 13 18 21 11 2 1 20
split_gain=11.5858 3.54553 2.79643 1.53896 1.33284 0.684362 0.637327 0.592035 0.523328 0.523282 0.520676 0.536213 0.436121 0.372613 0.352471 0.396976 0.285018 0.268728 0.264408 0.214531 0.204051 0.203218 0.16816 0.163483 0.146221 0.145715 0.144176 0.134452 0.133213 0.132397
threshold=0.14916335234073955 1.0000000180025095e-35 -0.72096599548944196 0.98101579198790323 0.030731479433960956 -1.4058718926345255 1.6226342371380003 -0.47626632877141889 -0.26077201790503968 0.68206459369993411 -0.61780340834398439 1.0000000180025095e-35 0.41835964335254783 -1.498689404208907 2.4409781863038416 -3.3111105974219179 1.0000000180025095e-35 -0.22415484098773333 1.2733005937496704 0.87050176636259502 1.0000000180025095e-35 1.7334254893610772 1.0000000180025095e-35 1.3763556449855976 0.31108665990837209 -0.38955398347764475 1.0000000180025095e-35 0.99980188923042812 -1.94643350992699 -0.96594925519489572
decision_type=2 2 2 2 2 2 2 2 2 2 2 2 2 2 2 2 2 2 2 2 2 2 2 2 2 2 2 2 2 2
left_child=2 3 10 9 5 21 13 16 25 19 11 14 17 -5 15 -1 28 -9 26 -2 29 -4 -12 -19 -11 -6 -14 -10 -3 -7
right_child=1 7 4 6 8 20 -8 12 27 24 22 -13 18 -15 -16 -17 -18 23 -20 -21 -22 -23 -24 -25 -26 -27 -28 -29 -30 -31
leaf_value=-0.022077972950277996 0.0017067668585807852 -0.0089180652645126073 -0.0074616876378043821 0.015419991608983436 -0.0034208907503132605 -0.0079141327550563845 0.020746202264933778 -0.0026821262030360996 0.0012747810349694169 0.0037440452349606101 -0.0080712716507268401 -0.0088771532354746992 0.0063287429924409021 0.009095584654853963 -0.024545360588050867 -0.010056714306236192 0.00015382105981711332 0.0009440914922491132 0.012997730990330301 0.0078293556715419276 -0.0017459097112149482 -0.013748151613623867 -0.0031012501530946601 0.0068119235607858823 0.0080967928578118947 -0.00016794038387529759 0.0013537043293093728 0.0047916671499970811 -0.0032945557805744517 -0.0039250660191883164
leaf_weight=9.9999999999999947 93 13.999999999999998 57 30 74 26 17 43 70 24 62 59 34 110 9.9999999999999982 23.000000000000004 65 47 9.9999999999999982 17 105 17 24 15.999999999999998 110 65 26 45 45 112
leaf_count=10 93 14 57 30 74 26 17 43 70 24 62 59 34 110 10 23 65 47 10 17 105 17 24 16 110 65 26 45 45 112
internal_value=0 0.00463433 -0.00428079 0.00771003 -0.00253806 -0.00470041 0.0115741 0.000521349 0.000158743 0.00522129 -0.0095708 -0.0119934 0.00238702 0.0104554 -0.0162545 -0.0137203 -0.00212265 0.000359234 0.00545005 0.00265816 -0.0034148 -0.00891429 -0.00669062 0.00244311 0.00732126 -0.00190345 0.00418181 0.0026556 -0.00463871 -0.00468077
internal_weight=1460 701 759 401 571 317 157 300 254 244 188 102 176 140 43 33 124 106 70 110 243 74 86 63 134 139 60 115 59 138
internal_count=1460 701 759 401 571 317 157 300 254 244 188 102 176 140 43 33 124 106 70 110 243 74 86 63 134 139 60 115 59 138
is_linear=0
shrinkage=0.05


Tree=22
num_leaves=31
num_cat=0
split_feature=0 0 0 21 19 21 20 20 22 2 17 5 17 2 19 7 7 19 21 19 19 20 11 21 17 19 22 19 1 23
split_gain=11.6135 2.67073 2.26619 1.5601 0.768891 0.670506 0.625364 0.599053 0.474438 0.463491 0.370455 0.358868 0.310915 0.283981 0.267048 0.23299 0.229849 0.223487 0.201185 0.191052 0.178981 0.17079 0.153087 0.144405 0.140048 0.128947 0.121864 0.116951 0.114776 0.108967
threshold=1.0000000180025095e-35 -1.1568091506962139 1.0131369221300894 -2.2920476866955615 -0.30266476503306433 0.51833669548442696 -3.3111105974219179 0.83701353962908753 2.5072196735707357 -0.50225724595409582 -0.88653306215556493 -0.90271280049492197 -1.4082153767376566 0.51526668433219458 2.4634796641806145 -0.59712423252841673 1.0000000180025095e-35 1.4274099586206102 2.3341180534085706 -1.4058718926345255 0.079447946510177794 0.21604466279512582 -1.0118680713594104 -1.297444662439716 -0.25256038389661051 -1.1688153099701464 0.32181220702821817 1.2715276808874603 0.50450151894810624 -1.4336330811903026
decision_type=2 2 2 2 2 2 2 2 2 2 2 2 2 2 2 2 2 2 2 2 2 2 2 2 2 2 2 2 2 2
left_child=1 6 7 12 10 17 -1 13 15 21 23 27 -3 26 -13 25 -14 22 -11 -18 -15 -6 -4 -5 -22 -8 -2 -7 -12 -9
right_child=2 3 5 4 9 11 8 29 -10 18 28 14 16 20 -16 -17 19 -19 -20 -21 24 -23 -24 -25 -26 -27 -28 -29 -30 -31
leaf_value=-0.019840427974689698 0.00040798216698341449 -0.013203207508982243 0.0095065328435503735 -0.012286315244398306 -0.0040898385726673 0.011725081366346264 -0.0070400820761428451 0.0097156938840543012 -0.016214280346742542 0.0011873992278569586 -0.0028126354760329231 0.0076114447350425721 -0.0030049976944826907 0.00015773392937527299 0.015888495531109947 -0.0089812969062077561 -0.011282305724170992 0.0094180755817151671 0.005557717669032027 -0.0060610863413063064 -0.0018228178879806094 -0.00054643691374382233 0.0028915371454902904 -0.0056186402943609933 0.0040758281591736899 -0.00084443598550945284 -0.0052316712972946631 0.015923559700441032 0.00022862480770305515 0.0053877826158089202
leaf_weight=13.999999999999998 19 17 10.999999999999998 9.9999999999999982 53 30 17 18 18 179 162 56 44 61 11.999999999999998 75 24 33 31 69 10.999999999999998 96 45 48 105 17 19 42 38 86
leaf_count=14 19 17 11 10 53 30 17 18 18 179 162 56 44 61 12 75 24 33 31 69 11 96 45 48 105 17 19 42 38 86
internal_value=0 -0.00345706 0.00575246 -0.00229905 -0.00117435 0.00954833 -0.00978502 0.00302574 -0.00867114 0.000320703 -0.00325655 0.0117096 -0.00680151 0.00151555 0.00908157 -0.00741953 -0.00600258 0.00614207 0.00183516 -0.00741494 0.00235894 -0.00181039 0.0042013 -0.00677878 0.00351205 -0.00395812 -0.00239932 0.014183 -0.00223231 0.00614251
internal_weight=1460 912 548 771 617 229 141 319 127 359 258 140 154 215 68 109 137 89 210 93 177 149 56 58 116 34 38 72 200 104
internal_count=1460 912 548 771 617 229 141 319 127 359 258 140 154 215 68 109 137 89 210 93 177 149 56 58 116 34 38 72 200 104
is_linear=0
shrinkage=0.05


Tree=23
num_leaves=31
num_cat=0
split_feature=0 19 0 16 8 0 9 19 0 20 17 14 21 18 21 7 22 9 9 22 17 8 8 17 20 7 9 19 17 9
split_gain=10.4831 2.43144 2.04555 1.30574 0.630005 0.60884 0.603516 0.486385 0.455285 0.404306 0.40328 0.326363 0.317951 0.397433 0.278642 0.272448 0.211177 0.216105 0.19112 0.189969 0.190681 0.188353 0.185964 0.171789 0.157659 0.152185 0.136655 0.122334 0.117177 0.115515
threshold=1.0000000180025095e-35 -1.4058718926345255 1.0131369221300894 1.0000000180025095e-35 1.1365420527103287 -1.8801245083049818 0.64823999134657651 2.2048630351038758 -0.43349379308744634 -0.92776163526050848 0.35567908601972958 0.12134657281251725 1.7321915975247535 1.1460300878603957 0.63032985216513648 0.55300951350257077 2.2214128564160034 0.75099936091355302 1.2733005937496704 0.92970385471156025 -1.1040956417794865 0.99968137064082774 -1.3307642270472646 0.92414905213384746 -1.0647340144661299 -0.59712423252841673 -0.34879990548598544 0.62243835960027616 -0.68534616056785247 1.2657831054101891
decision_type=2 2 2 2 2 2 2 2 2 2 2 2 2 2 2 2 2 2 2 2 2 2 2 2 2 2 2 2 2 2
left_child=1 5 6 9 10 -1 14 8 15 22 -4 19 24 -14 23 -5 17 -11 -12 20 -7 -10 -3 26 -6 -21 -2 -16 -24 -8
right_child=2 3 4 7 12 11 29 -9 21 16 18 -13 13 -15 27 -17 -18 -19 -20 25 -22 -23 28 -25 -26 -27 -28 -29 -30 -31
leaf_value=-0.017777030942478751 -0.0050565773281185016 -0.013515901565551759 0.0021433741354770462 -0.00063276546976739412 0.0047958043937678775 -0.011343451065336135 0.0050023153663449997 0.010723318735120837 0.00041838784914144584 -0.0030731760130470274 0.0068911756311082276 -0.0033727657205156708 0.021507080390760294 0.0088268209081310608 0.0026308265953821179 -0.0047509300184788595 -0.0081958646401527804 0.0041291436303972006 0.011537219957393503 -0.0068659823286023507 -0.005475246378361498 0.0047135336585333257 -0.0054751116289324681 0.0059332768105437392 0.011434867735795839 -0.01260082370773148 2.4978576096421724e-05 0.0075244655259947869 -0.010224393045274933 0.009018834109140032
leaf_weight=15.999999999999998 14.999999999999998 9.9999999999999982 34 90 10.999999999999998 19 89 9.9999999999999982 216 177 67 37 17.000000000000004 9.9999999999999982 54 73 19 10.999999999999998 34 17 54 29 78 10.999999999999998 56 40 110 17 15.999999999999998 23
leaf_count=16 15 10 34 90 11 19 89 10 216 177 67 37 17 10 54 73 19 11 34 17 54 29 78 11 56 40 110 17 16 23
internal_value=0 -0.00328454 0.00546532 -0.00199008 0.00907172 -0.00843802 0.00287463 -0.000163548 -0.000431865 -0.00444334 0.00687397 -0.00753926 0.0122217 0.0168342 0.00127171 -0.00248034 -0.00316083 -0.00264891 0.00846113 -0.00872092 -0.00701078 0.000929005 -0.00699068 -5.01872e-05 0.0103532 -0.0109007 -0.000581164 0.00381048 -0.00628982 0.00583233
internal_weight=1460 912 548 729 229 183 319 418 408 311 135 167 94 27 207 163 207 188 101 130 73 245 104 136 67 57 125 71 94 112
internal_count=1460 912 548 729 229 183 319 418 408 311 135 167 94 27 207 163 207 188 101 130 73 245 104 136 67 57 125 71 94 112
is_linear=0
shrinkage=0.05


Tree=24
num_leaves=31
num_cat=0
split_feature=0 20 0 16 21 9 17 13 16 2 1 7 21 9 2 23 9 9 13 12 2 11 0 0 9 1 1 23 0 9
split_gain=9.46297 2.23693 1.84628 1.15883 0.562537 0.544623 0.500779 0.499771 0.360744 0.3186 0.316263 0.293232 0.251506 0.225983 0.221415 0.21418 0.213283 0.211036 0.202937 0.189178 0.180008 0.17461 0.169349 0.16129 0.158983 0.158672 0.151976 0.146728 0.261219 0.142504
threshold=1.0000000180025095e-35 -1.8326771814566902 1.0131369221300894 1.0000000180025095e-35 0.51833669548442696 0.64823999134657651 -1.1929921796903362 1.0000000180025095e-35 0.98101579198790323 -0.40535020497444918 0.40513928804776439 -0.59712423252841673 0.63032985216513648 -0.3257592699725243 -0.30844316399480248 1.1035297229933738 1.7486333277226687 0.64173866968450499 1.3763556449855976 -1.2418530433633292 0.41835964335254783 -1.0118680713594104 -1.1568091506962139 -1.1568091506962139 0.97062497712941675 1.2000371352504986 -1.3171393808914924 1.0550762025035503 -1.1568091506962139 -0.38619773208588942
decision_type=2 2 2 2 2 2 2 2 2 2 2 2 2 2 2 2 2 2 2 2 2 2 2 2 2 2 2 2 2 2
left_child=1 6 5 9 21 12 27 10 -6 18 22 -8 14 -9 -2 -15 25 26 23 -13 24 -4 -5 -3 -7 -10 -11 -1 -29 -16
right_child=2 3 4 7 8 20 11 13 16 17 -12 19 -14 15 29 -17 -18 -19 -20 -21 -22 -23 -24 -25 -26 -27 -28 28 -30 -31
leaf_value=-0.010138406280594998 -0.0052146151291619135 -0.0088228851180574986 0.009267380637080708 -0.0074433372805791254 0.0073710338238846054 -0.00075322027191703693 -0.0026800564031854114 -0.0022615571952166007 0.010384019629228365 -0.0061766209526514584 0.0010115728474778696 -0.012218086365805004 0.0036203785111739183 0.002987385806125121 -0.0044153197021374819 -0.00074920641829848286 0.01858730859063755 0.0044097296365762607 0.0011034051519729785 -0.0068155096721797485 0.0071286158711517085 0.0041758362423916246 -0.0026396476506248562 -0.0051116467542517965 0.0054407533432845054 0.016398455150462662 -0.0017601411032114958 -0.021812921746091521 -0.010496177468499632 0.0013254315902577127
leaf_weight=25 18 37 23 22 54 17 34 37 59 26 57 22 71 144 11.999999999999998 52 12.999999999999998 10.999999999999998 10.999999999999998 66 69 66 116 151 26 13.999999999999998 80 10.000000000000002 10.999999999999998 106
leaf_count=25 18 37 23 22 54 17 34 37 59 26 57 22 71 144 12 52 13 11 11 66 69 66 116 151 26 14 80 10 11 106
internal_value=0 -0.00312058 0.00519264 -0.00194294 0.00861894 0.00273125 -0.00833243 -0.000246108 0.0105988 -0.00423951 -0.00211468 -0.00664667 0.00120839 0.0013156 -4.73069e-05 0.00199351 0.0126186 -0.00216162 -0.0054585 -0.00817307 0.005541 0.00549814 -0.00340956 -0.00584514 0.00298074 0.0115464 -0.00284863 -0.0127901 -0.0159167 0.000737065
internal_weight=1460 912 548 744 229 319 168 428 140 316 195 122 207 233 136 196 86 117 199 88 112 89 138 188 43 73 106 46 21 118
internal_count=1460 912 548 744 229 319 168 428 140 316 195 122 207 233 136 196 86 117 199 88 112 89 138 188 43 73 106 46 21 118
is_linear=0
shrinkage=0.05


Tree=25
num_leaves=31
num_cat=0
split_feature=0 0 19 15 8 16 20 1 9 9 9 8 8 1 14 9 1 22 17 11 20 17 17 22 17 9 15 22 19 8
split_gain=8.54171 2.04064 1.6861 1.18139 0.907727 0.756735 0.64576 0.431482 0.412766 0.393975 0.357798 0.302807 0.290186 0.268534 0.25488 0.222271 0.220522 0.196012 0.189809 0.186674 0.181522 0.15428 0.148924 0.13253 0.12791 0.127261 0.125924 0.100575 0.0966416 0.0912717
threshold=1.0000000180025095e-35 -1.1568091506962139 0.69123414650654802 1.0000000180025095e-35 -1.6167586625293728 0.98101579198790323 -0.92776163526050848 -0.78720748275633645 -0.054184720687281619 1.6226342371380003 -0.40277058204795702 1.6843226094952577 -0.56706690308373842 -1.3171393808914924 1.2051856090391675 -0.60468153776964062 -0.19103409735428609 1.406235754391115 0.15215280185541577 1.0000000180025095e-35 -0.34177798721320096 -1.1929921796903362 -1.4082153767376566 0.97138559088586973 0.59663549140966443 0.059506834947433453 -0.89798654362220065 0.69785864927742947 0.016677195264775405 0.45887770167480751
decision_type=2 2 2 2 2 2 2 2 2 2 2 2 2 2 2 2 2 2 2 2 2 2 2 2 2 2 2 2 2 2
left_child=1 4 14 10 -1 13 22 15 12 11 -3 26 -8 -4 19 21 -15 -10 -18 20 28 -6 -5 -24 -12 -9 -7 -21 -2 -22
right_child=2 3 5 6 7 9 8 25 17 -11 24 -13 -14 16 -16 -17 18 -19 -20 27 29 -23 23 -25 -26 -27 -28 -29 -30 -31
leaf_value=-0.019345506515872964 -0.0017963924095832915 -0.0018968856396017052 -0.0019189218540234258 -0.0089221416174422013 -0.01686351503395065 0.0096355125088219661 -0.0083238998725238943 -0.0051830635907105915 0.0015049041576916103 0.01636232599385198 0.0013436067083162535 0.016405282069701738 -0.0027440265782522964 0.011793318963240974 0.0076238732536013324 -0.0069878338609370904 0.0024764820723652912 -0.0026776430255808143 0.0062514244035938365 -0.00027808683451733933 0.0018395712125533839 -0.0094268947690831703 -0.0038822660734450414 -0.0069614288225544304 0.0055754770389360112 0.00089012593459840373 0.0063516424190921579 -0.0059932238528571657 0.0015072575946153948 0.005356119071835262
leaf_weight=17 35 100 12.999999999999998 33 15.000000000000002 61 28 57 84 20 175 11.999999999999998 143 12.999999999999998 15.999999999999998 28 51 42 99 22 38 13.999999999999998 85 61 20 9.9999999999999982 59 11.999999999999998 60 37
leaf_count=17 35 100 13 33 15 61 28 57 84 20 175 12 143 13 16 28 51 42 99 22 38 14 85 61 20 10 59 12 60 37
internal_value=0 -0.00296484 0.00493335 -0.00195251 -0.00849631 0.00720513 -0.00349342 -0.00700345 -0.002061 0.00979285 0.000532193 0.00879252 -0.00366105 0.00496702 0.00154388 -0.0102074 0.00551935 0.000106652 0.00497153 0.00106422 0.00174231 -0.0132951 -0.00586709 -0.00517258 0.00178047 -0.00426916 0.00802577 -0.00231106 0.0002848 0.00358155
internal_weight=1460 912 548 771 141 328 476 124 297 152 295 132 171 176 220 57 163 126 150 204 170 29 179 146 195 67 120 34 95 75
internal_count=1460 912 548 771 141 328 476 124 297 152 295 132 171 176 220 57 163 126 150 204 170 29 179 146 195 67 120 34 95 75
is_linear=0
shrinkage=0.05


Tree=26
num_leaves=31
num_cat=0
split_feature=0 19 8 0 9 1 0 17 23 17 21 14 9 23 12 9 20 19 20 19 20 2 2 2 14 20 1 20 20 14
split_gain=7.71009 1.86014 1.54955 0.997921 0.904735 0.501434 0.484311 0.402122 0.363687 0.329423 0.288372 0.260038 0.259403 0.237396 0.22686 0.223221 0.212872 0.217618 0.212277 0.190941 0.155632 0.151936 0.148205 0.148075 0.14346 0.138022 0.134413 0.120314 0.108048 0.111333
threshold=1.0000000180025095e-35 -1.4058718926345255 1.12357398695703 -0.43349379308744634 1.2343528570644939 -0.98593194455702005 -1.8801245083049818 0.35567908601972958 1.7334254893610772 -0.83272726289373489 1.7321915975247535 -2.4215065506423152 0.8377984886603429 1.0550762025035503 2.4508260672486073 -0.2001163946831877 -0.78787798167810885 0.51226157068056521 -1.6241943627329094 -0.018188164539698012 -1.0647340144661299 1.096708930210075 -1.2290600533014462 0.36990612286272445 -1.1292369305259249 2.4638032644923293 1.1006749043501569 1.2051307026926303 0.30000309325298474 -0.29551459496696347
decision_type=2 2 2 2 2 2 2 2 2 2 2 2 2 2 2 2 2 2 2 2 2 2 2 2 2 2 2 2 2 2
left_child=1 6 4 5 7 11 -1 13 18 28 20 -3 23 19 25 -13 22 -18 -8 -2 -4 -9 -7 -11 -10 -12 -22 -28 29 -5
right_child=2 3 10 9 -6 16 8 21 24 12 14 15 -14 -15 -16 -17 17 -19 -20 -21 26 -23 -24 -25 -26 -27 27 -29 -30 -31
leaf_value=-0.015655539988503466 -0.0012302135559163639 -0.01326108087795623 0.0039048788588140352 -0.0029032273738098485 0.0086688674288980788 -0.0085059929802731617 -0.0074990025341961589 0.0035038167047809648 -0.0059274851937493236 -0.00067275163057267185 0.012528007092275388 -0.0081744118717558285 0.004791839812926104 -0.0048698974615603531 0.0072255503881227716 -0.0033094147007443099 -0.0023169229311062298 0.001656384089794049 -0.0034008653198645319 0.0023176101941933028 0.0070333723340970508 0.0079292072498865721 -0.0032549827483973354 0.0017811322148868923 -0.012811327251677754 0.020489322957832311 0.0095120961180974409 0.016097030838529074 0.00038053659023538087 -0.0088537532166204878
leaf_weight=15.999999999999998 53 11.999999999999998 18 23.999999999999996 65 19 58 133 10.999999999999998 146 12.000000000000002 42 38 17 9.9999999999999982 55 171 43 71 132 38 23 48 106 27 10.999999999999998 26 9.9999999999999982 12.999999999999998 12.000000000000002
leaf_count=16 53 12 18 24 65 19 58 133 11 146 12 42 38 17 10 55 171 43 71 132 38 23 48 106 27 11 26 10 13 12
internal_value=0 -0.00281684 0.00468703 -0.00168452 0.00323977 -0.00340932 -0.00732448 0.00225243 -0.00652241 0.000298333 0.0095799 -0.00629046 0.000940406 0.00077668 0.0136133 -0.00542169 -0.00228976 -0.00151617 -0.00524775 0.00129849 0.00812636 0.00415995 -0.00475258 0.000357483 -0.0108339 0.0163646 0.00914578 0.0113591 -0.00349091 -0.00490253
internal_weight=1460 912 548 729 423 390 183 358 167 339 125 109 290 202 33 97 281 214 129 185 92 156 67 252 38 23 74 36 49 36
internal_count=1460 912 548 729 423 390 183 358 167 339 125 109 290 202 33 97 281 214 129 185 92 156 67 252 38 23 74 36 49 36
is_linear=0
shrinkage=0.05


Tree=27
num_leaves=31
num_cat=0
split_feature=0 20 5 16 9 17 17 13 20 2 21 22 21 18 9 2 2 23 9 23 13 9 13 22 7 21 2 13 23 0
split_gain=6.95981 1.70325 1.41174 0.894544 0.705511 0.434615 0.393218 0.390972 0.279153 0.266677 0.260466 0.245244 0.243178 0.20379 0.3703 0.19698 0.183823 0.176285 0.173509 0.175195 0.173185 0.171424 0.168165 0.142425 0.140716 0.131087 0.127468 0.129603 0.121936 0.209012
threshold=1.0000000180025095e-35 -1.8326771814566902 -2.0598336861161561 1.0000000180025095e-35 1.35012910902894 0.35567908601972958 -1.1929921796903362 1.0000000180025095e-35 -1.1801041086984916 -0.40535020497444918 1.7321915975247535 0.92970385471156025 0.51833669548442696 1.3926956888227429 1.6750922993105455 0.27299908188307781 -0.55071076644391914 1.0550762025035503 -0.3257592699725243 1.1035297229933738 1.3763556449855976 0.64173866968450499 1.3763556449855976 2.379017195307378 -0.59712423252841673 -2.2920476866955615 0.41835964335254783 1.0000000180025095e-35 1.0550762025035503 -1.1568091506962139
decision_type=2 2 2 2 2 2 2 2 2 2 2 2 2 2 2 2 2 2 2 2 2 2 2 2 2 2 2 2 2 2
left_child=1 6 8 9 5 12 28 10 -2 20 15 16 17 14 -10 -5 25 -4 -9 -20 23 -11 -14 -3 -13 -8 -7 -28 -1 -30
right_child=2 3 4 7 -6 26 11 18 13 21 -12 24 22 -15 -16 -17 -18 -19 19 -21 -22 -23 -24 -25 -26 -27 27 -29 29 -31
leaf_value=-0.0087554232979633485 0.0030646924800590072 -0.0046986307359753003 0.00027470892980342054 -0.0036946224225155922 0.0088868264926737547 0.00084047139319115647 -0.0034986593616248467 -0.0019098484113870828 0.0099691322777376665 -0.0023846277770097502 0.0056470319242990638 -0.0037097831611034048 0.0022151820118030733 0.0036076718388677953 0.019846368168940014 -0.00038696781240581514 -0.00030556836156923027 -0.0060567737886562736 0.0027166268159178582 -0.00066210799393905031 0.0012790424219729357 0.0041570327996693348 0.0086967497187679012 -0.0095322478921763126 -0.0097717034402593217 -0.0091533606557689089 0.003078604488857932 0.0061008294759117808 -0.019304454893052395 -0.0091699910230873729
leaf_weight=25 14.999999999999998 171 129 104 48 23 27 37 76 106 10.999999999999998 12.999999999999998 63 9.9999999999999982 10.999999999999998 80 25 11.999999999999998 144 52 10.999999999999998 10.999999999999998 11.999999999999998 17 40 17 61 88 10.000000000000002 10.999999999999998
leaf_count=25 15 171 129 104 48 23 27 37 76 106 11 13 63 10 11 80 25 12 144 52 11 11 12 17 40 17 61 88 10 11
internal_value=0 -0.00267629 0.00445312 -0.00164858 0.00316502 0.00245567 -0.00722423 -0.000157621 0.00946233 -0.00366634 -0.0018105 -0.00572961 0.00095933 0.0104461 0.0112259 -0.00225933 -0.00375076 -0.000260986 0.00122356 0.00181769 -0.00478154 -0.00176502 0.00325992 -0.00513886 -0.00829523 -0.00569637 0.00433172 0.00486719 -0.0111752 -0.0140266
internal_weight=1460 912 548 744 436 388 168 428 112 316 195 122 216 97 87 184 69 141 233 196 199 117 75 188 53 44 172 149 46 21
internal_count=1460 912 548 744 436 388 168 428 112 316 195 122 216 97 87 184 69 141 233 196 199 117 75 188 53 44 172 149 46 21
is_linear=0
shrinkage=0.05


Tree=28
num_leaves=31
num_cat=0
split_feature=0 0 8 15 8 29 13 2 1 14 22 2 8 12 8 8 22 14 2 2 23 18 12 2 3 28 18 16 8 14
split_gain=6.28267 1.57514 1.30617 0.923487 0.770295 0.633691 0.419178 0.421479 0.349976 0.285071 0.22149 0.214205 0.249608 0.211025 0.196143 0.190616 0.182047 0.169828 0.158769 0.218058 0.137647 0.132624 0.125639 0.111142 0.151599 0.0993216 0.0892767 0.0732187 0.0638925 0.0601141
threshold=1.0000000180025095e-35 -1.1568091506962139 1.12357398695703 1.0000000180025095e-35 -1.6167586625293728 1.0000000180025095e-35 1.0000000180025095e-35 -1.1321530123217991 -0.78720748275633645 1.2051856090391675 0.97138559088586973 0.41835964335254783 -0.88947713673093298 1.0000000180025095e-35 -1.4216137943533129 0.76315534448159739 0.66529951890898309 0.49652162381405002 0.22454556139325441 0.5637202048220179 -0.34124232673311483 1.0000000180025095e-35 1.2199330303779619 1.1451624506998983 1.6992529601058775 1.0000000180025095e-35 0.58644438511291896 -1.6961487992314208 -0.017212049350338644 1.1218133754832713
decision_type=2 2 2 2 2 2 2 2 2 2 2 2 2 2 2 2 2 2 2 2 2 2 2 2 2 2 2 2 2 2
left_child=1 4 5 15 -1 22 7 10 27 11 -5 16 -13 21 -9 17 -7 28 -4 -20 -15 -8 -2 24 -21 -10 -17 -6 -3 -24
right_child=2 3 18 6 8 9 13 14 25 -11 -12 12 -14 20 -16 26 -18 -19 19 23 -22 -23 29 -25 -26 -27 -28 -29 -30 -31
leaf_value=-0.017396951025720905 0.0044823229407719633 -0.0021073896163366084 0.0038375027363575114 -0.0046518368662883842 -0.011722198059932404 0.00082495690689931558 -0.0041417026919064502 -0.0071099878085163527 -0.0043716780835551241 0.0071628864691660639 -0.0094616384175410344 -0.0014219793991759044 0.0028880859307567636 0.0043150963153400675 -0.002296616189678104 0.0017185394969506864 -0.0047382976491256419 0.0017218199310634306 0.015797665354165311 0.0087545617065350519 -0.00039519986512533031 -0.00025510400627034885 0.0074346877782568589 0.01366206494929431 0.0021443472369448409 0.00099088142088220852 0.0059648624457211202 -0.0077036254320938915 -6.3135474397943615e-05 0.011895316578336174
leaf_weight=17 38 75 14.999999999999998 54 17 44 55 24 57 24 44 40 205 22 188 37 22 85 11.999999999999998 78 52 37 40 9.9999999999999982 9.9999999999999982 9.9999999999999982 19 40 79 9.9999999999999982
leaf_count=17 38 75 15 54 17 44 55 24 57 24 44 40 205 22 188 37 22 85 12 78 52 37 40 10 10 10 19 40 79 10
internal_value=0 -0.00254279 0.00423093 -0.00165329 -0.00740266 0.00290205 -0.0030157 -0.00410196 -0.00602715 0.00190797 -0.00681719 0.00150063 0.00218233 -0.00098401 -0.00284419 0.000543383 -0.00102232 -6.98369e-05 0.00872327 0.00938456 0.000998796 -0.00258425 0.00668 0.00859265 0.00800941 -0.00356381 0.00316899 -0.00891276 -0.00106203 0.00833901
internal_weight=1460 912 548 771 141 423 476 310 124 335 98 311 245 166 212 295 66 239 125 110 74 92 88 98 88 67 56 57 154 50
internal_count=1460 912 548 771 141 423 476 310 124 335 98 311 245 166 212 295 66 239 125 110 74 92 88 98 88 67 56 57 154 50
is_linear=0
shrinkage=0.05


Tree=29
num_leaves=31
num_cat=0
split_feature=19 4 1 19 19 21 13 17 20 19 12 2 1 5 17 2 2 5 1 23 14 20 17 23 17 13 19 17 11 20
split_gain=5.37143 2.13485 1.09384 0.836958 0.568237 0.389924 0.348723 0.328958 0.265653 0.493412 0.25655 0.237135 0.234587 0.225165 0.223142 0.188832 0.185735 0.176735 0.135016 0.118623 0.118346 0.115052 0.107475 0.124936 0.101592 0.100471 0.118383 0.0985244 0.0972841 0.0928118
threshold=0.034581925477793936 1.0000000180025095e-35 -0.82032822638978364 1.2169278118552052 -1.2265231427977092 1.7321915975247535 1.3763556449855976 -0.25256038389661051 4.5026512891090444 2.9488021103171005 1.0000000180025095e-35 -0.40535020497444918 -0.38975855915496954 -0.90271280049492197 -1.1929921796903362 -0.79297836889303597 -0.25998964350497911 -0.90271280049492197 -2.2942013180781857 2.5350951208793253 -0.37888682852285965 -2.8835507536163991 -1.0807018160134734 1.3325906736019535 -0.99414466067922513 1.0000000180025095e-35 -0.21824869153241946 0.9054339915210371 1.0000000180025095e-35 0.48942492397152265
decision_type=2 2 2 2 2 2 2 2 2 2 2 2 2 2 2 2 2 2 2 2 2 2 2 2 2 2 2 2 2 2
left_child=2 3 10 7 16 6 12 -2 9 17 14 25 18 -9 19 -8 29 -5 -3 21 -7 -1 -16 -24 -13 26 -6 -15 -14 -4
right_child=1 5 4 8 11 20 15 13 -10 -11 -12 24 28 27 22 -17 -18 -19 -20 -21 -22 -23 23 -25 -26 -27 -28 -29 -30 -31
leaf_value=-0.013096190445543165 -0.0025318815268343207 -0.0072655789795820882 -0.0052240983850784404 0.009812348129669959 -0.0029451696186153773 0.0087661232085362219 -0.00030844685196980138 0.0071282724805489805 0.00017945652051095417 0.016925534763826997 -0.0031335616299717687 -0.0036358741337629468 0.0026750168881199687 0.0025255940120526496 -0.0020211982840887713 0.0057856134359114027 -0.0024167255636297525 0.0061755294636145468 -0.0023505005658379366 -0.015503683496100812 0.0027575988485703785 -0.0069493251655814887 -0.0058329532607107343 -0.010805948213288879 0.00039964551018772937 -0.00081756772112233475 -0.0087408972583566009 0.0053032146164465228 -0.00068147293483283074 -0.0094142267944699598
leaf_weight=12.999999999999995 22 15.999999999999998 89 51 82 10.999999999999998 23 43 10.999999999999998 14.999999999999998 34 17 28 153 11.999999999999998 28 63 102 118 10.999999999999998 34 20.000000000000004 46 18 187 52 9.9999999999999982 41 94 15.999999999999998
leaf_count=13 22 16 89 51 82 11 23 43 11 15 34 17 28 153 12 28 63 102 118 11 34 20 46 18 187 52 10 41 94 16
internal_value=0 0.00279265 -0.00329342 0.00512273 -0.00218825 -0.000105349 -0.0007439 0.00330214 0.00775388 0.00824681 -0.00699285 -0.00103348 -0.00149737 0.00384588 -0.0080818 0.00302799 -0.00457709 0.00739163 -0.00294161 -0.0109324 0.00423908 -0.0093892 -0.00642368 -0.00724089 6.07396e-05 -0.00258698 -0.00358146 0.00311544 8.49271e-05 -0.00586819
internal_weight=1460 790 670 438 516 352 307 259 179 168 154 348 256 237 120 51 168 153 134 44 45 33 76 64 204 144 92 194 122 105
internal_count=1460 790 670 438 516 352 307 259 179 168 154 348 256 237 120 51 168 153 134 44 45 33 76 64 204 144 92 194 122 105
is_linear=0
shrinkage=0.05


Tree=30
num_leaves=31
num_cat=0
split_feature=0 0 8 21 8 9 16 1 17 21 21 7 8 18 9 17 17 9 18 17 23 8 2 23 13 7 1 7 1 8
split_gain=5.13601 1.32953 1.08744 0.862553 0.681077 0.644034 0.401924 0.292639 0.247957 0.223565 0.216049 0.215372 0.215161 0.21257 0.203568 0.167558 0.163912 0.161491 0.148839 0.146817 0.140637 0.155216 0.140478 0.135696 0.132535 0.12407 0.116705 0.104457 0.0978153 0.11288
threshold=1.0000000180025095e-35 -1.1568091506962139 1.12357398695703 -2.2920476866955615 -1.6167586625293728 0.8377984886603429 1.0000000180025095e-35 -0.78720748275633645 0.35567908601972958 1.0259113955173484 1.7321915975247535 1.0000000180025095e-35 -1.4911691747854197 1.1460300878603957 1.35012910902894 -1.4082153767376566 -0.63621912645922496 -0.60468153776964062 0.39394430663920149 1.1229965711449588 1.0550762025035503 0.45887770167480751 0.90289484825078137 -0.99755139678189242 1.3763556449855976 0.55300951350257077 -1.1846564063577032 -0.59712423252841673 1.1006749043501569 1.4189463212494993
decision_type=2 2 2 2 2 2 2 2 2 2 2 2 2 2 2 2 2 2 2 2 2 2 2 2 2 2 2 2 2 2
left_child=1 4 5 11 -1 8 12 17 20 25 24 -3 -5 19 22 -13 -17 26 -11 -12 21 -2 -7 -14 28 -8 -6 -9 -4 -30
right_child=2 3 10 6 7 14 9 27 -10 18 13 15 23 -15 -16 16 -18 -19 -20 -21 -22 -23 -24 -25 -26 -27 -28 -29 29 -31
leaf_value=-0.016162183123045567 -0.00060279833390046444 -0.0021171410825087771 0.0041189523789553241 -0.0070676564479095249 -0.013846425055901579 0.0025808227499617637 0.00044546039913351824 -0.00063448581186945031 0.0031003047225430032 0.00024217643508462122 0.010470078318028335 -0.012001094824340971 0.0022802345806847571 0.0052440171207224105 0.0081305239666978422 -0.0036254570016794711 -0.0079084569988908376 -0.0053621673750033107 0.0041245956823969202 0.01869899449529467 -0.0043706833456390896 0.0026652378833867179 0.0068197502669906547 -0.0022619271936716828 0.011860904858856177 -0.0016310627518509977 -0.0073731514443773037 -0.004741715456053599 0.0056669631191577259 0.01115334427392459
leaf_weight=17 103 50 39 22 15.000000000000002 58 179 25 113 46 13.000000000000002 10.999999999999998 18 9.9999999999999982 47 54 39 28 54 9.9999999999999982 15.999999999999998 56 30 178 10.999999999999998 120 13.999999999999998 42 27 14.999999999999998
leaf_count=17 103 50 39 22 15 58 179 25 113 46 13 11 18 10 47 54 39 28 54 10 16 56 30 178 11 120 14 42 27 15
internal_value=-5.09439e-08 -0.00229918 0.00382529 -0.0014819 -0.00676416 0.00261263 -0.000645415 -0.00547049 0.00127453 0.000296759 0.00792441 -0.00482975 -0.00237208 0.0114173 0.00546323 -0.00612876 -0.00542759 -0.00810958 0.00234389 0.0140762 9.26294e-05 0.000545159 0.0040322 -0.00184214 0.00666498 -0.000386281 -0.0107423 -0.00321695 0.00595182 0.00764048
internal_weight=1460 912 548 771 141 423 617 124 288 399 125 154 218 33 135 104 93 57 100 23 175 159 88 196 92 299 29 67 81 42
internal_count=1460 912 548 771 141 423 617 124 288 399 125 154 218 33 135 104 93 57 100 23 175 159 88 196 92 299 29 67 81 42
is_linear=0
shrinkage=0.05


Tree=31
num_leaves=31
num_cat=0
split_feature=9 11 1 8 2 8 21 1 9 8 9 19 11 8 9 21 18 8 2 7 18 10 20 1 13 9 20 22 19 13
split_gain=4.55705 1.44 1.2325 0.778744 0.525953 0.389328 0.370185 0.345113 0.335042 0.292215 0.228595 0.211381 0.205306 0.20295 0.165897 0.165811 0.164842 0.145474 0.141956 0.126442 0.125474 0.240198 0.197862 0.117703 0.101037 0.096339 0.0918135 0.138115 0.0914432 0.0886942
threshold=0.14367032965533119 1.0000000180025095e-35 -0.72096599548944196 0.35821316949036691 0.030731479433960956 -1.6167586625293728 1.7321915975247535 -1.94643350992699 0.59417406734852729 -1.7679141342225804 0.91481344367286754 -0.26077201790503968 -1.0118680713594104 -0.35738032699299449 -0.61780340834398439 -2.2920476866955615 0.54428655577501417 -0.60123507269645304 0.85444132776095805 -0.59712423252841673 1.1386616006294965 1.6976312010729151 2.4638032644923293 -1.0521734318239144 1.3763556449855976 0.40699858090953839 1.8198300566665375 -0.071356220302717696 -0.13621358854489016 1.0000000180025095e-35
decision_type=2 2 2 2 2 2 2 2 2 2 2 2 2 2 2 2 2 2 2 2 2 2 2 2 2 2 2 2 2 2
left_child=2 3 5 8 9 -1 12 -3 13 -4 16 -6 -5 -2 19 -11 28 -16 -10 -7 21 -8 -22 -21 -14 -15 -12 -28 -9 -19
right_child=1 7 4 6 11 14 20 10 18 15 26 -13 24 25 17 -17 -18 29 -20 23 22 -23 -24 -25 -26 -27 27 -29 -30 -31
leaf_value=-0.013033807495592268 0.0012187015698058674 -0.007028574730999518 -0.0083344936408895811 0.0079448663459193523 -0.0011648586996874193 -0.0041902992356153161 0.0089940001368134653 -0.006472259306615883 0.0024588997117963381 -0.0044345628661816095 0.00068619955366128053 0.0017419079957626184 0.0038084246932109721 -0.00058334863788404531 -0.002126927196627926 -0.0017478731614470834 0.0012635922059587943 -0.0091065166116710162 0.005908783328488789 -0.0096035248077519196 0.010737097708489757 0.017993965703290659 0.0019282089363702954 -0.0045215263071561292 0.0083050565675783818 -0.0071688791349684838 0.00097948335954076474 0.0087342521953506207 -0.0014130866959342981 -0.0033320474516690315
leaf_weight=19 58 18 23 50 137 29 31 9.9999999999999982 81 79 17 115 137 10.000000000000002 50 215 68 15.999999999999998 48 44 14.000000000000002 9.9999999999999982 11.999999999999998 15.999999999999998 13.999999999999998 12.999999999999998 10.000000000000002 13.999999999999998 90 12.000000000000002
leaf_count=19 58 18 23 50 137 29 31 10 81 79 17 115 137 10 50 215 68 16 48 44 14 10 12 16 14 13 10 14 90 12
internal_value=-1.14551e-08 0.0028904 -0.00269967 0.0044477 -0.00154342 -0.00623383 0.00623513 -0.000386693 0.00216402 -0.00289884 0.000183252 0.000159674 0.00515631 -0.000350692 -0.00545645 -0.00247163 -0.000631167 -0.00375825 0.00374681 -0.00693856 0.00946289 0.0112052 0.00669298 -0.00825764 0.00422916 -0.00432883 0.00353191 0.00552568 -0.0019246 -0.00665167
internal_weight=1460 705 755 478 569 186 268 227 210 317 209 252 201 81 167 294 168 78 129 89 67 41 26 60 151 23 41 24 100 28
internal_count=1460 705 755 478 569 186 268 227 210 317 209 252 201 81 167 294 168 78 129 89 67 41 26 60 151 23 41 24 100 28
is_linear=0
shrinkage=0.05


Tree=32
num_leaves=31
num_cat=0
split_feature=0 0 0 21 8 19 21 15 9 8 1 17 16 21 7 17 2 9 2 9 22 9 19 17 19 3 7 11 1 2
split_gain=4.19976 1.12939 0.911351 0.699344 0.577401 0.377144 0.353908 0.331428 0.300965 0.272547 0.248896 0.188856 0.1722 0.158068 0.157993 0.14535 0.135533 0.133714 0.13051 0.121226 0.188129 0.112995 0.105986 0.103208 0.100035 0.0978825 0.0933952 0.0868108 0.0846728 0.0819182
threshold=1.0000000180025095e-35 -1.1568091506962139 1.0131369221300894 -2.2920476866955615 -1.6167586625293728 2.2048630351038758 0.51833669548442696 1.0000000180025095e-35 0.64823999134657651 -1.4216137943533129 -0.78720748275633645 -1.4082153767376566 0.98101579198790323 0.63032985216513648 1.0000000180025095e-35 -0.63621912645922496 0.41835964335254783 -0.60468153776964062 -0.30844316399480248 1.1907700237657719 -1.7770745174252507 -0.56708547520417019 -0.31274497244149824 -1.1929921796903362 1.4274099586206102 1.4640887363007911 -0.59712423252841673 -1.0118680713594104 1.1006749043501569 0.9513483687406048
decision_type=2 2 2 2 2 2 2 2 2 2 2 2 2 2 2 2 2 2 2 2 2 2 2 2 2 2 2 2 2 2
left_child=1 4 8 11 -1 7 24 21 13 -9 17 -3 25 18 -13 -16 -10 23 -2 28 -21 -5 -20 -6 27 29 -12 -4 -14 -8
right_child=2 3 6 5 10 -7 12 9 16 -11 26 14 19 -15 15 -17 -18 -19 22 20 -22 -23 -24 -25 -26 -27 -28 -29 -30 -31
leaf_value=-0.014848636970721155 -0.0043643459512219705 -0.0093295926036535467 0.00607844381969588 -0.0012314718727749294 -0.012754074723362367 0.0078469976204390904 0.0047055505471839711 -0.0069367341744538541 0.0015971427054833681 -0.0014016316492548289 -0.00048106774221919545 -0.0012327762496067473 0.0042577884260177395 0.0025096271819490274 -0.0031891813705798126 -0.0072226596674188348 0.0051940018121261616 -0.0049335171751510414 -0.0029215616204296456 0.0057956208694388139 0.013507515208714488 0.0011504547046401095 0.00092380212388379595 -0.0066634475496158184 0.0055828758773569711 0.00067696903955998954 -0.0043650578066299411 0.0011010902451144863 0.0087017610855342382 0.0094100730110100797
leaf_weight=17 18 17 10.999999999999998 66 15.000000000000002 12.999999999999998 30 24 43 313 25 44 17 71 54 39 69 28 22 11.999999999999998 25 201 96 13.999999999999998 33 9.9999999999999982 42 45 32 13.999999999999998
leaf_count=17 18 17 11 66 15 13 30 24 43 313 25 44 17 71 54 39 69 28 22 12 25 201 96 14 33 10 42 45 32 14
internal_value=-1.14084e-08 -0.00207908 0.00345911 -0.00132576 -0.00619434 -0.000572475 0.00586654 -0.000754644 0.00172919 -0.0017975 -0.00500273 -0.00434033 0.00743677 0.000596577 -0.00371694 -0.00488661 0.00381779 -0.00743697 -0.000398582 0.00883498 0.0110221 0.000559767 0.000202446 -0.00983432 0.00339034 0.0051995 -0.00292356 0.00208862 0.00717136 0.0062156
internal_weight=1460 912 548 771 141 617 229 604 319 337 124 154 140 207 137 93 112 57 136 86 37 267 118 29 89 54 67 56 49 44
internal_count=1460 912 548 771 141 617 229 604 319 337 124 154 140 207 137 93 112 57 136 86 37 267 118 29 89 54 67 56 49 44
is_linear=0
shrinkage=0.05


Tree=33
num_leaves=31
num_cat=0
